{"learner":{"attributes":{"best_iteration":"1","best_score":"30.24345761323961"},"feature_names":[],"feature_types":[],"gradient_booster":{"model":{"gbtree_model_param":{"num_parallel_tree":"1","num_trees":"22"},"iteration_indptr":[0,1,2,3,4,5,6,7,8,9,10,11,12,13,14,15,16,17,18,19,20,21,22],"tree_info":[0,0,0,0,0,0,0,0,0,0,0,0,0,0,0,0,0,0,0,0,0,0],"trees":[{"base_weights":[6.1151636E-6,-3.1925312E1,9.1692126E-1,8.7222445E-1,-3.8606743E1,3.431471E0,-8.07453E0,-2.0319886E0,-5.077366E-1,-1.8150375E1,4.551388E0,-1.3841175E1,2.7668052E0,6.3764495E-1,-2.3885717E1,-2.438079E0,8.380438E0,1.6052195E-1,-1.8626158E1,-1.46714735E1,1.2219519E1,-1.1145859E0,-3.0605598E1,-5.834275E0,2.126159E1,1.6485691E1,5.3389444E0,-1.8214779E1,1.8515759E1,-1.9753369E0,-2.3933668E1,3.7920609E0,-1.5344881E0,-2.753068E0,2.0493454E1,2.8125688E-1,-2.618103E-1,-1.6270478E0,-3.2968482E-1,5.104613E-1,-4.720551E-1,1.3686084E0,-4.115532E-1,1.7392429E0,6.0859627E-1,3.1395927E-1,-1.3629407E0,-1.2455379E0,7.164265E-1,1.6220942E0,-7.754206E-1,-5.491297E-1,8.266506E-1,-1.5155671E0,-5.6548727E-1,-1.5648213E-1,5.878489E-1,4.9685922E-1,-4.319675E-1,-6.5555E-1,1.3897632E0],"categories":[],"categories_nodes":[],"categories_segments":[],"categories_sizes":[],"default_left":[0,0,0,0,0,0,0,0,0,0,0,0,0,0,0,0,0,0,0,0,0,0,0,0,0,0,0,0,0,0,0,0,0,0,0,0,0,0,0,0,0,0,0,0,0,0,0,0,0,0,0,0,0,0,0,0,0,0,0,0,0],"id":0,"left_children":[1,3,5,-1,7,9,11,-1,-1,13,15,17,19,-1,21,23,25,27,29,31,33,35,37,39,41,43,45,47,49,51,53,55,-1,57,59,-1,-1,-1,-1,-1,-1,-1,-1,-1,-1,-1,-1,-1,-1,-1,-1,-1,-1,-1,-1,-1,-1,-1,-1,-1,-1],"loss_changes":[1.1533486E4,4.3019434E3,8.687127E3,0E0,1.6575195E2,7.3335703E3,5.2898193E3,0E0,0E0,2.9632246E3,7.6746562E3,3.687873E3,5.1244497E3,0E0,1.9551372E3,8.333894E3,4.472618E3,5.3965054E3,3.5760742E3,3.3696743E3,2.534065E3,1.405687E2,2.5015137E2,5.304339E3,2.568125E3,3.5235186E3,4.3395293E3,2.1002085E3,4.2937217E3,2.0153795E3,2.1530352E3,3.675799E2,0E0,6.8343805E2,3.5542769E3,0E0,0E0,0E0,0E0,0E0,0E0,0E0,0E0,0E0,0E0,0E0,0E0,0E0,0E0,0E0,0E0,0E0,0E0,0E0,0E0,0E0,0E0,0E0,0E0,0E0,0E0],"parents":[2147483647,0,0,1,1,2,2,4,4,5,5,6,6,9,9,10,10,11,11,12,12,14,14,15,15,16,16,17,17,18,18,19,19,20,20,21,21,22,22,23,23,24,24,25,25,26,26,27,27,28,28,29,29,30,30,31,31,33,33,34,34],"right_children":[2,4,6,-1,8,10,12,-1,-1,14,16,18,20,-1,22,24,26,28,30,32,34,36,38,40,42,44,46,48,50,52,54,56,-1,58,60,-1,-1,-1,-1,-1,-1,-1,-1,-1,-1,-1,-1,-1,-1,-1,-1,-1,-1,-1,-1,-1,-1,-1,-1,-1,-1],"split_conditions":[1.0226836E2,1.09013115E2,1.8039467E2,8.7222445E-1,1.8062326E2,1.04683525E2,1.6774855E2,-2.0319886E0,-5.077366E-1,9.991889E1,1.3432654E2,1.353618E2,1.4250877E2,6.3764495E-1,1.2298428E2,1.9053351E2,1.2670013E2,1.495676E2,1.0818131E2,1.3035733E2,1.8789827E2,1.5552824E2,1.8831578E2,1.1718359E2,2.0141292E2,1.1206089E2,2.0084737E2,1.8604144E2,1.6376784E2,1.667927E2,1.6179036E2,1.3035733E2,-1.5344881E0,1.8317192E2,1.09013115E2,2.8125688E-1,-2.618103E-1,-1.6270478E0,-3.2968482E-1,5.104613E-1,-4.720551E-1,1.3686084E0,-4.115532E-1,1.7392429E0,6.0859627E-1,3.1395927E-1,-1.3629407E0,-1.2455379E0,7.164265E-1,1.6220942E0,-7.754206E-1,-5.491297E-1,8.266506E-1,-1.5155671E0,-5.6548727E-1,-1.5648213E-1,5.878489E-1,4.9685922E-1,-4.319675E-1,-6.5555E-1,1.3897632E0],"split_indices":[8,0,6,0,0,0,2,0,0,2,9,4,9,0,8,0,1,3,3,9,6,5,1,7,0,5,7,0,0,7,5,0,0,6,8,0,0,0,0,0,0,0,0,0,0,0,0,0,0,0,0,0,0,0,0,0,0,0,0,0,0],"split_type":[0,0,0,0,0,0,0,0,0,0,0,0,0,0,0,0,0,0,0,0,0,0,0,0,0,0,0,0,0,0,0,0,0,0,0,0,0,0,0,0,0,0,0,0,0,0,0,0,0,0,0,0,0,0,0,0,0,0,0,0,0],"sum_hessian":[3.92E2,1E1,3.82E2,1E0,9E0,2.99E2,8.3E1,8E0,1E0,1.4E1,2.85E2,5.4E1,2.9E1,2E0,1.2E1,1.01E2,1.84E2,1.4E1,4E1,1E1,1.9E1,3E0,9E0,8.9E1,1.2E1,4.9E1,1.35E2,7E0,7E0,1E1,3E1,5E0,5E0,7E0,1.2E1,1E0,2E0,8E0,1E0,1.6E1,7.3E1,1E1,2E0,8E0,4.1E1,1.32E2,3E0,6E0,1E0,5E0,2E0,7E0,3E0,1.9E1,1.1E1,3E0,2E0,2E0,5E0,2E0,1E1],"tree_param":{"num_deleted":"0","num_feature":"10","num_nodes":"61","size_leaf_vector":"1"}},{"base_weights":[-6.2622577E-3,-3.0480642E1,8.689974E-1,8.5041887E-1,-3.693038E1,3.2632117E0,-7.6921134E0,-1.9416783E0,-4.950432E-1,-1.73295E1,4.331839E0,-1.3176133E1,2.6183271E0,6.1639E-1,-2.2840454E1,-2.3064122E0,7.968433E0,1.736669E-1,-1.7738838E1,-1.4038185E1,1.1648493E1,-1.0539932E0,-2.9270994E1,-5.5421305E0,2.0272131E1,6.1110716E0,2.0785017E1,-1.7370174E1,1.76958E1,-1.8513371E0,-2.2804117E1,3.674352E0,-1.4705513E0,2.8242376E1,4.234373E0,2.7422562E-1,-2.5308332E-1,-1.5547346E0,-3.214428E-1,4.864393E-1,-4.48771E-1,1.306399E0,-3.978345E-1,3.6718175E-1,-1.3682474E0,1.2622074E0,-8.6786234E-1,-1.1921574E0,6.985157E-1,1.5545067E0,-7.495733E-1,-5.251052E-1,7.9565144E-1,-1.4435778E0,-5.395689E-1,-1.5061417E-1,5.682541E-1,1.6915429E0,7.4993134E-3,7.867052E-1,-5.577953E-1],"categories":[],"categories_nodes":[],"categories_segments":[],"categories_sizes":[],"default_left":[0,0,0,0,0,0,0,0,0,0,0,0,0,0,0,0,0,0,0,0,0,0,0,0,0,0,0,0,0,0,0,0,0,0,0,0,0,0,0,0,0,0,0,0,0,0,0,0,0,0,0,0,0,0,0,0,0,0,0,0,0],"id":1,"left_children":[1,3,5,-1,7,9,11,-1,-1,13,15,17,19,-1,21,23,25,27,29,31,33,35,37,39,41,43,45,47,49,51,53,55,-1,57,59,-1,-1,-1,-1,-1,-1,-1,-1,-1,-1,-1,-1,-1,-1,-1,-1,-1,-1,-1,-1,-1,-1,-1,-1,-1,-1],"loss_changes":[1.0508974E4,3.997336E3,7.8755034E3,0E0,1.2993555E2,6.6768506E3,4.784083E3,0E0,0E0,2.7331729E3,6.922597E3,3.3531953E3,4.6758555E3,0E0,1.7904316E3,7.564247E3,4.27691E3,4.9184624E3,3.2572422E3,3.1032786E3,2.3409917E3,1.3257753E2,2.1666699E2,4.8059736E3,2.3568398E3,6.926553E3,4.35004E3,1.9560247E3,3.9686797E3,1.8575493E3,1.947917E3,3.4278546E2,0E0,9.368887E2,2.830289E3,0E0,0E0,0E0,0E0,0E0,0E0,0E0,0E0,0E0,0E0,0E0,0E0,0E0,0E0,0E0,0E0,0E0,0E0,0E0,0E0,0E0,0E0,0E0,0E0,0E0,0E0],"parents":[2147483647,0,0,1,1,2,2,4,4,5,5,6,6,9,9,10,10,11,11,12,12,14,14,15,15,16,16,17,17,18,18,19,19,20,20,21,21,22,22,23,23,24,24,25,25,26,26,27,27,28,28,29,29,30,30,31,31,33,33,34,34],"right_children":[2,4,6,-1,8,10,12,-1,-1,14,16,18,20,-1,22,24,26,28,30,32,34,36,38,40,42,44,46,48,50,52,54,56,-1,58,60,-1,-1,-1,-1,-1,-1,-1,-1,-1,-1,-1,-1,-1,-1,-1,-1,-1,-1,-1,-1,-1,-1,-1,-1,-1,-1],"split_conditions":[1.0226836E2,1.09013115E2,1.8039467E2,8.5041887E-1,1.8062326E2,1.04683525E2,1.6774855E2,-1.9416783E0,-4.950432E-1,9.991889E1,1.3432654E2,1.353618E2,1.4250877E2,6.1639E-1,1.2298428E2,1.9053351E2,1.8800377E2,1.495676E2,1.0818131E2,1.3035733E2,1.2802008E2,1.5552824E2,1.8831578E2,1.1718359E2,2.0141292E2,1.8517723E2,1.8763414E2,1.8604144E2,1.6376784E2,1.667927E2,1.6179036E2,1.3035733E2,-1.4705513E0,1.9593654E2,1.4581845E2,2.7422562E-1,-2.5308332E-1,-1.5547346E0,-3.214428E-1,4.864393E-1,-4.48771E-1,1.306399E0,-3.978345E-1,3.6718175E-1,-1.3682474E0,1.2622074E0,-8.6786234E-1,-1.1921574E0,6.985157E-1,1.5545067E0,-7.495733E-1,-5.251052E-1,7.9565144E-1,-1.4435778E0,-5.395689E-1,-1.5061417E-1,5.682541E-1,1.6915429E0,7.4993134E-3,7.867052E-1,-5.577953E-1],"split_indices":[8,0,6,0,0,0,2,0,0,2,9,4,9,0,8,0,4,3,3,9,5,5,1,7,0,4,7,0,0,7,5,0,0,1,1,0,0,0,0,0,0,0,0,0,0,0,0,0,0,0,0,0,0,0,0,0,0,0,0,0,0],"split_type":[0,0,0,0,0,0,0,0,0,0,0,0,0,0,0,0,0,0,0,0,0,0,0,0,0,0,0,0,0,0,0,0,0,0,0,0,0,0,0,0,0,0,0,0,0,0,0,0,0,0,0,0,0,0,0,0,0,0,0,0,0],"sum_hessian":[3.92E2,1E1,3.82E2,1E0,9E0,2.99E2,8.3E1,8E0,1E0,1.4E1,2.85E2,5.4E1,2.9E1,2E0,1.2E1,1.01E2,1.84E2,1.4E1,4E1,1E1,1.9E1,3E0,9E0,8.9E1,1.2E1,1.62E2,2.2E1,7E0,7E0,1E1,3E1,5E0,5E0,5E0,1.4E1,1E0,2E0,8E0,1E0,1.6E1,7.3E1,1E1,2E0,1.57E2,5E0,2E1,2E0,6E0,1E0,5E0,2E0,7E0,3E0,1.9E1,1.1E1,3E0,2E0,4E0,1E0,8E0,6E0],"tree_param":{"num_deleted":"0","num_feature":"10","num_nodes":"61","size_leaf_vector":"1"}},{"base_weights":[-1.3614198E-2,-2.9100817E1,8.218241E-1,8.291584E-1,-3.5327534E1,3.0970523E0,-7.313775E0,-1.8553814E0,-4.8266718E-1,-1.6545605E1,4.1164327E0,-1.2542809E1,2.5165784E0,5.958435E-1,-2.184113E1,-2.1818101E0,7.5667267E0,1.8573557E-1,-1.6893671E1,-1.34319935E1,1.1162464E1,-9.960098E-1,-2.7995064E1,-5.2646003E0,1.9328415E1,1.5300527E1,4.66778E0,-1.6563374E1,1.6911629E1,-1.7341787E0,-2.1727888E1,3.5602443E0,-1.4092783E0,-2.6940851E0,1.8830921E1,2.6736984E-1,-2.4464722E-1,-1.4856354E0,-3.1340677E-1,4.6354824E-1,-4.266354E-1,1.2470173E0,-3.8457364E-1,1.6356792E0,5.6024295E-1,-9.540599E-1,2.9553327E-1,-1.141065E0,6.810528E-1,1.4897357E0,-7.245875E-1,-5.02132E-1,7.658144E-1,-1.375008E0,-5.148388E-1,-1.4496593E-1,5.4931235E-1,4.7648215E-1,-4.1784674E-1,1.2893701E0,-6.4765763E-1],"categories":[],"categories_nodes":[],"categories_segments":[],"categories_sizes":[],"default_left":[0,0,0,0,0,0,0,0,0,0,0,0,0,0,0,0,0,0,0,0,0,0,0,0,0,0,0,0,0,0,0,0,0,0,0,0,0,0,0,0,0,0,0,0,0,0,0,0,0,0,0,0,0,0,0,0,0,0,0,0,0],"id":2,"left_children":[1,3,5,-1,7,9,11,-1,-1,13,15,17,19,-1,21,23,25,27,29,31,33,35,37,39,41,43,45,47,49,51,53,55,-1,57,59,-1,-1,-1,-1,-1,-1,-1,-1,-1,-1,-1,-1,-1,-1,-1,-1,-1,-1,-1,-1,-1,-1,-1,-1,-1,-1],"loss_changes":[9.574036E3,3.714915E3,7.1121133E3,0E0,9.88125E1,6.075111E3,4.3494375E3,0E0,0E0,2.5211343E3,6.2315146E3,3.049046E3,4.28662E3,0E0,1.63975E3,6.8655303E3,4.0762578E3,4.4822705E3,2.9669746E3,2.8580059E3,2.175899E3,1.25043884E2,1.8694775E2,4.354448E3,2.1630664E3,3.1993535E3,4.1271284E3,1.8219858E3,3.6683564E3,1.7121105E3,1.7623252E3,3.1966504E2,0E0,6.3340765E2,3.2083975E3,0E0,0E0,0E0,0E0,0E0,0E0,0E0,0E0,0E0,0E0,0E0,0E0,0E0,0E0,0E0,0E0,0E0,0E0,0E0,0E0,0E0,0E0,0E0,0E0,0E0,0E0],"parents":[2147483647,0,0,1,1,2,2,4,4,5,5,6,6,9,9,10,10,11,11,12,12,14,14,15,15,16,16,17,17,18,18,19,19,20,20,21,21,22,22,23,23,24,24,25,25,26,26,27,27,28,28,29,29,30,30,31,31,33,33,34,34],"right_children":[2,4,6,-1,8,10,12,-1,-1,14,16,18,20,-1,22,24,26,28,30,32,34,36,38,40,42,44,46,48,50,52,54,56,-1,58,60,-1,-1,-1,-1,-1,-1,-1,-1,-1,-1,-1,-1,-1,-1,-1,-1,-1,-1,-1,-1,-1,-1,-1,-1,-1,-1],"split_conditions":[1.0226836E2,1.09013115E2,1.8039467E2,8.291584E-1,1.8062326E2,1.04683525E2,1.6774855E2,-1.8553814E0,-4.8266718E-1,9.991889E1,1.3432654E2,1.353618E2,1.4250877E2,5.958435E-1,1.2298428E2,1.9053351E2,1.2670013E2,1.495676E2,1.0818131E2,1.3035733E2,1.8789827E2,1.5552824E2,1.8831578E2,1.1718359E2,2.0141292E2,1.1206089E2,1.0327668E2,1.8604144E2,1.6376784E2,1.667927E2,1.6179036E2,1.3035733E2,-1.4092783E0,1.8317192E2,1.6608699E2,2.6736984E-1,-2.4464722E-1,-1.4856354E0,-3.1340677E-1,4.6354824E-1,-4.266354E-1,1.2470173E0,-3.8457364E-1,1.6356792E0,5.6024295E-1,-9.540599E-1,2.9553327E-1,-1.141065E0,6.810528E-1,1.4897357E0,-7.245875E-1,-5.02132E-1,7.658144E-1,-1.375008E0,-5.148388E-1,-1.4496593E-1,5.4931235E-1,4.7648215E-1,-4.1784674E-1,1.2893701E0,-6.4765763E-1],"split_indices":[8,0,6,0,0,0,2,0,0,2,9,4,9,0,8,0,1,3,3,9,6,5,1,7,0,5,2,0,0,7,5,0,0,6,4,0,0,0,0,0,0,0,0,0,0,0,0,0,0,0,0,0,0,0,0,0,0,0,0,0,0],"split_type":[0,0,0,0,0,0,0,0,0,0,0,0,0,0,0,0,0,0,0,0,0,0,0,0,0,0,0,0,0,0,0,0,0,0,0,0,0,0,0,0,0,0,0,0,0,0,0,0,0,0,0,0,0,0,0,0,0,0,0,0,0],"sum_hessian":[3.92E2,1E1,3.82E2,1E0,9E0,2.99E2,8.3E1,8E0,1E0,1.4E1,2.85E2,5.4E1,2.9E1,2E0,1.2E1,1.01E2,1.84E2,1.4E1,4E1,1E1,1.9E1,3E0,9E0,8.9E1,1.2E1,4.9E1,1.35E2,7E0,7E0,1E1,3E1,5E0,5E0,7E0,1.2E1,1E0,2E0,8E0,1E0,1.6E1,7.3E1,1E1,2E0,8E0,4.1E1,6E0,1.29E2,6E0,1E0,5E0,2E0,7E0,3E0,1.9E1,1.1E1,3E0,2E0,2E0,5E0,1E1,2E0],"tree_param":{"num_deleted":"0","num_feature":"10","num_nodes":"61","size_leaf_vector":"1"}},{"base_weights":[-1.7712096E-2,-2.7782951E1,7.7976924E-1,8.0842936E-1,-3.3794964E1,2.9463878E0,-6.9674373E0,-1.7729203E0,-4.7060052E-1,1.2136763E1,8.337046E-1,-1.1939683E1,2.3805952E0,3.905062E-1,1.8651613E1,-6.9078856E0,4.03233E0,1.9679515E-1,-1.6088646E1,-1.2851757E1,1.0639359E1,2.5841986E1,-1.7259787E1,2.0542168E1,-1.1879435E0,-1.1026819E1,1.9732182E1,-1.0192089E1,6.2664604E0,-1.5792705E1,1.6161695E1,-1.6234943E0,-2.0702454E1,3.449618E0,-1.3505586E0,2.6323494E1,3.6564147E0,4.377253E-1,1.4736739E0,-1.2748379E0,-1.7002647E-1,1.2208914E-1,1.1738752E0,-1.118351E0,-2.6160723E-1,1.3726695E0,-3.7175474E-1,8.80383E-1,-9.2172664E-1,5.9024143E-1,-2.4322659E-2,-1.0921621E0,6.640267E-1,1.4276636E0,-7.004344E-1,-4.8016354E-1,7.370966E-1,-1.3096948E0,-4.9124238E-1,-1.3952999E-1,5.310018E-1,1.5723064E0,1.775818E-2,7.1792E-1,-5.312813E-1],"categories":[],"categories_nodes":[],"categories_segments":[],"categories_sizes":[],"default_left":[0,0,0,0,0,0,0,0,0,0,0,0,0,0,0,0,0,0,0,0,0,0,0,0,0,0,0,0,0,0,0,0,0,0,0,0,0,0,0,0,0,0,0,0,0,0,0,0,0,0,0,0,0,0,0,0,0,0,0,0,0,0,0,0,0],"id":3,"left_children":[1,3,5,-1,7,9,11,-1,-1,13,15,17,19,21,23,25,27,29,31,33,35,37,39,41,-1,43,45,47,49,51,53,55,57,59,-1,61,63,-1,-1,-1,-1,-1,-1,-1,-1,-1,-1,-1,-1,-1,-1,-1,-1,-1,-1,-1,-1,-1,-1,-1,-1,-1,-1,-1,-1],"loss_changes":[8.723572E3,3.4530264E3,6.4492764E3,0E0,7.186035E1,5.814787E3,3.9328042E3,0E0,0E0,4.278122E3,6.0946543E3,2.7726255E3,3.9107466E3,9.879775E3,3.3745117E3,8.118047E3,5.5934507E3,4.0842986E3,2.702706E3,2.6321758E3,2.0941792E3,3.0045166E2,1.3973552E3,1.802249E3,0E0,4.0228784E3,2.3017598E3,5.8238975E3,5.6531616E3,1.6973599E3,3.3908625E3,1.5780875E3,1.5943945E3,2.9810608E2,0E0,7.869888E2,2.4452598E3,0E0,0E0,0E0,0E0,0E0,0E0,0E0,0E0,0E0,0E0,0E0,0E0,0E0,0E0,0E0,0E0,0E0,0E0,0E0,0E0,0E0,0E0,0E0,0E0,0E0,0E0,0E0,0E0],"parents":[2147483647,0,0,1,1,2,2,4,4,5,5,6,6,9,9,10,10,11,11,12,12,13,13,14,14,15,15,16,16,17,17,18,18,19,19,20,20,21,21,22,22,23,23,25,25,26,26,27,27,28,28,29,29,30,30,31,31,32,32,33,33,35,35,36,36],"right_children":[2,4,6,-1,8,10,12,-1,-1,14,16,18,20,22,24,26,28,30,32,34,36,38,40,42,-1,44,46,48,50,52,54,56,58,60,-1,62,64,-1,-1,-1,-1,-1,-1,-1,-1,-1,-1,-1,-1,-1,-1,-1,-1,-1,-1,-1,-1,-1,-1,-1,-1,-1,-1,-1,-1],"split_conditions":[1.0226836E2,1.09013115E2,1.8039467E2,8.0842936E-1,1.8062326E2,1.17995056E2,1.6774855E2,-1.7729203E0,-4.7060052E-1,1.3640189E2,1.2838087E2,1.353618E2,1.4250877E2,1.17807304E2,1.990971E2,1.9225517E2,1.1260324E2,1.495676E2,1.0818131E2,1.3035733E2,1.2802008E2,1.0519345E2,1.4443513E2,1.1260324E2,-1.1879435E0,1.3133624E2,2.0141292E2,1.15498695E2,1.6807716E2,1.8604144E2,1.6376784E2,1.667927E2,1.6179036E2,1.3035733E2,-1.3505586E0,1.9593654E2,1.4581845E2,4.377253E-1,1.4736739E0,-1.2748379E0,-1.7002647E-1,1.2208914E-1,1.1738752E0,-1.118351E0,-2.6160723E-1,1.3726695E0,-3.7175474E-1,8.80383E-1,-9.2172664E-1,5.9024143E-1,-2.4322659E-2,-1.0921621E0,6.640267E-1,1.4276636E0,-7.004344E-1,-4.8016354E-1,7.370966E-1,-1.3096948E0,-4.9124238E-1,-1.3952999E-1,5.310018E-1,1.5723064E0,1.775818E-2,7.1792E-1,-5.312813E-1],"split_indices":[8,0,6,0,0,1,2,0,0,8,9,4,9,3,3,0,0,3,3,9,5,3,9,3,0,6,0,6,9,0,0,7,5,0,0,1,1,0,0,0,0,0,0,0,0,0,0,0,0,0,0,0,0,0,0,0,0,0,0,0,0,0,0,0,0],"split_type":[0,0,0,0,0,0,0,0,0,0,0,0,0,0,0,0,0,0,0,0,0,0,0,0,0,0,0,0,0,0,0,0,0,0,0,0,0,0,0,0,0,0,0,0,0,0,0,0,0,0,0,0,0,0,0,0,0,0,0,0,0,0,0,0,0],"sum_hessian":[3.92E2,1E1,3.82E2,1E0,9E0,2.99E2,8.3E1,8E0,1E0,5.5E1,2.44E2,5.4E1,2.9E1,2E1,3.5E1,7.1E1,1.73E2,1.4E1,4E1,1E1,1.9E1,8E0,1.2E1,3.4E1,1E0,6.2E1,9E0,2.3E1,1.5E2,7E0,7E0,1E1,3E1,5E0,5E0,5E0,1.4E1,2E0,6E0,7E0,5E0,5E0,2.9E1,2E1,4.2E1,7E0,2E0,5E0,1.8E1,8.2E1,6.8E1,6E0,1E0,5E0,2E0,7E0,3E0,1.9E1,1.1E1,3E0,2E0,4E0,1E0,8E0,6E0],"tree_param":{"num_deleted":"0","num_feature":"10","num_nodes":"65","size_leaf_vector":"1"}},{"base_weights":[-1.9732973E-2,-2.652427E1,7.4154544E-1,7.882187E-1,-3.232957E1,8.640241E0,-1.3067775E0,-1.6941239E0,-4.588356E-1,5.2925415E0,2.5229137E1,-3.1202803E0,1.1142248E1,8.811922E0,-1.3425389E1,2.944105E1,1.3757426E0,-1.1939341E0,-1.6743645E1,-1.3580512E1,1.6048826E1,-1.3611298E0,9.941513E0,-2.1766293E1,9.369537E-1,3.257909E1,-4.848366E-2,1.9493066E-1,-9.174996E-2,9.079455E-1,-8.989048E0,1.0775245E0,-1.9909412E1,-1.8626898E1,-6.430308E-1,-7.9313034E-1,2.34059E1,6.9870937E-1,-1.5773325E-1,-2.8203622E-1,-1.1756884E0,3.333646E-1,-2.5528514E-1,3.0238494E-1,1.7427529E0,-3.5100368E-1,1.8195735E-1,-3.552989E-2,-1.1229296E0,-1.2733773E0,-2.8452873E-1,-1.0749829E0,-1.7839661E-1,1.7314149E-2,-6.554146E-2,-6.9357127E-1,6.2086767E-1,1.433805E0,-6.5102234E-2],"categories":[],"categories_nodes":[],"categories_segments":[],"categories_sizes":[],"default_left":[0,0,0,0,0,0,0,0,0,0,0,0,0,0,0,0,0,0,0,0,0,0,0,0,0,0,0,0,0,0,0,0,0,0,0,0,0,0,0,0,0,0,0,0,0,0,0,0,0,0,0,0,0,0,0,0,0,0,0],"id":4,"left_children":[1,3,5,-1,7,9,11,-1,-1,13,15,17,19,21,23,25,27,29,31,33,35,-1,37,39,41,43,-1,-1,-1,45,47,-1,49,51,53,55,57,-1,-1,-1,-1,-1,-1,-1,-1,-1,-1,-1,-1,-1,-1,-1,-1,-1,-1,-1,-1,-1,-1],"loss_changes":[7.94936E3,3.2101372E3,6.207878E3,0E0,4.8612305E1,4.25371E3,6.9205513E3,0E0,0E0,4.531964E3,1.2655869E3,6.9869746E3,4.9488125E3,2.5907778E3,1.3381382E3,1.0813213E3,3.1454805E1,3.858493E3,4.429658E3,4.4503503E2,4.1075127E3,0E0,3.0015908E3,6.461841E1,2.0717355E2,3.9305273E2,0E0,0E0,0E0,4.053008E3,5.5593887E3,0E0,2.3050107E3,1.395946E2,2.435904E0,2.072723E3,3.0323008E3,0E0,0E0,0E0,0E0,0E0,0E0,0E0,0E0,0E0,0E0,0E0,0E0,0E0,0E0,0E0,0E0,0E0,0E0,0E0,0E0,0E0,0E0],"parents":[2147483647,0,0,1,1,2,2,4,4,5,5,6,6,9,9,10,10,11,11,12,12,13,13,14,14,15,15,16,16,17,17,18,18,19,19,20,20,22,22,23,23,24,24,25,25,29,29,30,30,32,32,33,33,34,34,35,35,36,36],"right_children":[2,4,6,-1,8,10,12,-1,-1,14,16,18,20,22,24,26,28,30,32,34,36,-1,38,40,42,44,-1,-1,-1,46,48,-1,50,52,54,56,58,-1,-1,-1,-1,-1,-1,-1,-1,-1,-1,-1,-1,-1,-1,-1,-1,-1,-1,-1,-1,-1,-1],"split_conditions":[1.0226836E2,1.09013115E2,1.1803458E2,7.882187E-1,1.8062326E2,1.8847464E2,1.8924753E2,-1.6941239E0,-4.588356E-1,1.7566116E2,1.7050049E2,1.8790108E2,1.2891473E2,9.5792175E1,1.5493982E2,1.9333134E2,1.495676E2,1.8179292E2,1.1129052E2,1.9839583E2,1.3035733E2,-1.3611298E0,1.839148E2,1.0565369E2,1.6376784E2,1.01175804E2,-4.848366E-2,1.9493066E-1,-9.174996E-2,1.2838087E2,1.6284633E2,1.0775245E0,1.6733829E2,1.896199E2,1.4077612E2,1.7127315E2,1.8179292E2,6.9870937E-1,-1.5773325E-1,-2.8203622E-1,-1.1756884E0,3.333646E-1,-2.5528514E-1,3.0238494E-1,1.7427529E0,-3.5100368E-1,1.8195735E-1,-3.552989E-2,-1.1229296E0,-1.2733773E0,-2.8452873E-1,-1.0749829E0,-1.7839661E-1,1.7314149E-2,-6.554146E-2,-6.9357127E-1,6.2086767E-1,1.433805E0,-6.5102234E-2],"split_indices":[8,0,7,0,0,4,2,0,0,9,6,8,7,4,0,0,0,4,0,2,0,0,2,0,0,2,0,0,0,9,3,0,9,0,0,9,4,0,0,0,0,0,0,0,0,0,0,0,0,0,0,0,0,0,0,0,0,0,0],"split_type":[0,0,0,0,0,0,0,0,0,0,0,0,0,0,0,0,0,0,0,0,0,0,0,0,0,0,0,0,0,0,0,0,0,0,0,0,0,0,0,0,0,0,0,0,0,0,0,0,0,0,0,0,0,0,0,0,0,0,0],"sum_hessian":[3.92E2,1E1,3.82E2,1E0,9E0,7.8E1,3.04E2,8E0,1E0,6.6E1,1.2E1,2.66E2,3.8E1,5.6E1,1E1,1E1,2E0,2.34E2,3.2E1,6E0,3.2E1,1E0,5.5E1,6E0,4E0,9E0,1E0,1E0,1E0,1.85E2,4.9E1,2E0,3E1,4E0,2E0,1E1,2.2E1,4.2E1,1.3E1,1E0,5E0,2E0,2E0,1E0,8E0,4.7E1,1.38E2,3.1E1,1.8E1,2.1E1,9E0,3E0,1E0,1E0,1E0,5E0,5E0,1.8E1,4E0],"tree_param":{"num_deleted":"0","num_feature":"10","num_nodes":"59","size_leaf_vector":"1"}},{"base_weights":[-2.7091397E-2,-2.5322124E1,6.9946855E-1,7.6851314E-1,-3.0928389E1,2.7233927E0,-6.5371594E0,-1.6188294E0,-4.473648E-1,1.1428652E1,7.225034E-1,-1.2247148E1,6.972253E-1,-9.479031E0,1.4608912E1,1.4131845E1,-8.65521E-1,1.7878265E0,-1.7666044E1,-1.0801979E1,5.189869E0,7.173943E-1,-2.6644756E1,1.7693401E1,-3.4107695E0,2.3647247E1,-9.934519E-1,6.894148E0,-3.9540884E0,-1.4008035E1,1.5385727E1,-1.1455536E-1,-2.0688213E1,-1.7960796E1,3.1080762E-1,1.8889366E1,-2.7612415E-1,-1.5236648E0,-2.8326494E-1,2.5685593E-1,1.157247E0,3.9039677E-1,-1.2355628E0,5.498502E-1,1.5068846E0,-5.010523E-1,8.6550504E-1,-8.90096E-1,4.665025E-1,-8.144989E-1,-5.8590997E-2,-1.0314277E0,6.428768E-1,1.3507218E0,-6.500135E-1,1.5249069E-1,-3.9841005E-1,-1.2791016E0,-5.1772535E-1,3.5141945E-1,-1.1267369E0,1.234845E0,-5.44084E-1,4.9431548E-1,-6.221716E-1],"categories":[],"categories_nodes":[],"categories_segments":[],"categories_sizes":[],"default_left":[0,0,0,0,0,0,0,0,0,0,0,0,0,0,0,0,0,0,0,0,0,0,0,0,0,0,0,0,0,0,0,0,0,0,0,0,0,0,0,0,0,0,0,0,0,0,0,0,0,0,0,0,0,0,0,0,0,0,0,0,0,0,0,0,0],"id":5,"left_children":[1,3,5,-1,7,9,11,-1,-1,13,15,17,19,21,23,25,27,29,31,33,35,-1,37,39,41,43,45,47,49,51,53,55,57,59,-1,61,63,-1,-1,-1,-1,-1,-1,-1,-1,-1,-1,-1,-1,-1,-1,-1,-1,-1,-1,-1,-1,-1,-1,-1,-1,-1,-1,-1,-1],"loss_changes":[7.2404062E3,2.984833E3,5.6273687E3,0E0,2.864746E1,5.2172197E3,3.4784326E3,0E0,0E0,3.8620254E3,5.2293506E3,3.6061245E3,2.0192103E3,3.6543464E3,2.7838418E3,3.7654976E3,5.299837E3,3.2225916E3,1.8011113E3,1.4517739E3,2.101894E3,0E0,2.2896313E2,2.756045E3,2.1046548E3,9.822666E2,1.991073E3,3.9559954E3,5.403749E3,1.5102804E3,2.9919355E3,1.7341254E2,1.2016787E3,1.0727751E3,0E0,1.6519138E3,2.7196582E3,0E0,0E0,0E0,0E0,0E0,0E0,0E0,0E0,0E0,0E0,0E0,0E0,0E0,0E0,0E0,0E0,0E0,0E0,0E0,0E0,0E0,0E0,0E0,0E0,0E0,0E0,0E0,0E0],"parents":[2147483647,0,0,1,1,2,2,4,4,5,5,6,6,9,9,10,10,11,11,12,12,13,13,14,14,15,15,16,16,17,17,18,18,19,19,20,20,22,22,23,23,24,24,25,25,26,26,27,27,28,28,29,29,30,30,31,31,32,32,33,33,35,35,36,36],"right_children":[2,4,6,-1,8,10,12,-1,-1,14,16,18,20,22,24,26,28,30,32,34,36,-1,38,40,42,44,46,48,50,52,54,56,58,60,-1,62,64,-1,-1,-1,-1,-1,-1,-1,-1,-1,-1,-1,-1,-1,-1,-1,-1,-1,-1,-1,-1,-1,-1,-1,-1,-1,-1,-1,-1],"split_conditions":[1.0226836E2,1.09013115E2,1.8039467E2,7.6851314E-1,1.8062326E2,1.17995056E2,1.5860632E2,-1.6188294E0,-4.473648E-1,1.1155207E2,1.1129052E2,1.353618E2,1.8683078E2,1.11190315E2,1.7295624E2,1.6411089E2,1.2350687E2,1.495676E2,1.0459906E2,1.5424333E2,1.1977357E2,7.173943E-1,1.4391417E2,1.0518307E2,1.8517723E2,1.2417401E2,1.06729774E2,1.1469246E2,1.1642579E2,1.8604144E2,1.6376784E2,1.6491254E2,1.5623141E2,1.0667473E2,3.1080762E-1,2.001063E2,1.4035924E2,-1.5236648E0,-2.8326494E-1,2.5685593E-1,1.157247E0,3.9039677E-1,-1.2355628E0,5.498502E-1,1.5068846E0,-5.010523E-1,8.6550504E-1,-8.90096E-1,4.665025E-1,-8.144989E-1,-5.8590997E-2,-1.0314277E0,6.428768E-1,1.3507218E0,-6.500135E-1,1.5249069E-1,-3.9841005E-1,-1.2791016E0,-5.1772535E-1,3.5141945E-1,-1.1267369E0,1.234845E0,-5.44084E-1,4.9431548E-1,-6.221716E-1],"split_indices":[8,0,6,0,0,1,2,0,0,8,8,4,6,3,6,1,5,3,3,5,3,0,0,1,3,9,8,8,9,0,0,5,5,7,0,1,7,0,0,0,0,0,0,0,0,0,0,0,0,0,0,0,0,0,0,0,0,0,0,0,0,0,0,0,0],"split_type":[0,0,0,0,0,0,0,0,0,0,0,0,0,0,0,0,0,0,0,0,0,0,0,0,0,0,0,0,0,0,0,0,0,0,0,0,0,0,0,0,0,0,0,0,0,0,0,0,0,0,0,0,0,0,0,0,0,0,0,0,0,0,0,0,0],"sum_hessian":[3.92E2,1E1,3.82E2,1E0,9E0,2.99E2,8.3E1,8E0,1E0,5.5E1,2.44E2,4.6E1,3.7E1,7E0,4.8E1,2.5E1,2.19E2,1.3E1,3.3E1,1E1,2.7E1,3E0,4E0,4.1E1,7E0,1.5E1,1E1,6.2E1,1.57E2,6E0,7E0,5E0,2.8E1,7E0,3E0,7E0,2E1,3E0,1E0,1.3E1,2.8E1,5E0,2E0,6E0,9E0,7E0,3E0,5E0,5.7E1,2.8E1,1.29E2,5E0,1E0,5E0,2E0,4E0,1E0,1.8E1,1E1,1E0,6E0,6E0,1E0,1.1E1,9E0],"tree_param":{"num_deleted":"0","num_feature":"10","num_nodes":"65","size_leaf_vector":"1"}},{"base_weights":[-3.1654123E-2,-2.4173983E1,6.6181135E-1,7.493004E-1,-2.9588583E1,8.094896E0,-1.2656494E0,-1.5468812E0,-4.361805E-1,4.9070673E0,2.3901793E1,9.02168E0,-3.2221222E0,8.239448E0,-1.2806816E1,2.7969099E1,1.0210775E0,-1.9797108E1,1.2023286E1,-7.6312013E0,1.0109543E0,-1.3067391E0,9.319965E0,-2.0667301E1,7.592255E-1,3.0949236E1,-4.5806885E-2,1.7769967E-1,-1.01118855E-1,-1.13832094E-1,-1.1804031E0,6.768673E-1,2.0288866E1,-6.041307E0,-1.5163491E0,-4.034214E0,1.0221029E1,6.5753955E-1,-1.5559275E-1,-2.866478E-1,-1.1100433E0,3.0071718E-1,-2.3744838E-1,2.9629022E-1,1.6535597E0,-1.7100675E-1,1.251663E0,3.3744813E-3,1.1981206E0,-1.5332603E-1,-8.551921E-1,-5.4358405E-1,1.3697712E-1,-1.0359982E0,6.028314E-1],"categories":[],"categories_nodes":[],"categories_segments":[],"categories_sizes":[],"default_left":[0,0,0,0,0,0,0,0,0,0,0,0,0,0,0,0,0,0,0,0,0,0,0,0,0,0,0,0,0,0,0,0,0,0,0,0,0,0,0,0,0,0,0,0,0,0,0,0,0,0,0,0,0,0,0],"id":6,"left_children":[1,3,5,-1,7,9,11,-1,-1,13,15,17,19,21,23,25,27,29,31,33,35,-1,37,39,41,43,-1,-1,-1,-1,-1,45,47,49,-1,51,53,-1,-1,-1,-1,-1,-1,-1,-1,-1,-1,-1,-1,-1,-1,-1,-1,-1,-1],"loss_changes":[6.595554E3,2.775808E3,5.4974785E3,0E0,1.1589844E1,3.8634976E3,6.167767E3,0E0,0E0,4.0604897E3,1.1812593E3,4.4766553E3,4.8043545E3,2.3606682E3,1.1886832E3,9.752549E2,3.0313955E1,2.8010156E2,4.206579E3,4.363357E3,6.1747954E3,0E0,2.707875E3,3.304297E1,1.7329294E2,3.3501367E2,0E0,0E0,0E0,0E0,0E0,2.0813809E3,1.9297715E3,3.863683E3,0E0,4.012902E3,2.9191904E3,0E0,0E0,0E0,0E0,0E0,0E0,0E0,0E0,0E0,0E0,0E0,0E0,0E0,0E0,0E0,0E0,0E0,0E0],"parents":[2147483647,0,0,1,1,2,2,4,4,5,5,6,6,9,9,10,10,11,11,12,12,13,13,14,14,15,15,16,16,17,17,18,18,19,19,20,20,22,22,23,23,24,24,25,25,31,31,32,32,33,33,35,35,36,36],"right_children":[2,4,6,-1,8,10,12,-1,-1,14,16,18,20,22,24,26,28,30,32,34,36,-1,38,40,42,44,-1,-1,-1,-1,-1,46,48,50,-1,52,54,-1,-1,-1,-1,-1,-1,-1,-1,-1,-1,-1,-1,-1,-1,-1,-1,-1,-1],"split_conditions":[1.0226836E2,1.09013115E2,1.1803458E2,7.493004E-1,1.8062326E2,1.8847464E2,1.15498695E2,-1.5468812E0,-4.361805E-1,1.7566116E2,1.7050049E2,1.1442047E2,1.4964903E2,9.5792175E1,1.5493982E2,1.9333134E2,1.495676E2,1.2441459E2,1.07144035E2,1.9621175E2,1.7085521E2,-1.3067391E0,1.839148E2,1.0565369E2,1.6376784E2,1.01175804E2,-4.5806885E-2,1.7769967E-1,-1.01118855E-1,-1.13832094E-1,-1.1804031E0,1.9754338E2,1.1934491E2,1.8101695E2,-1.5163491E0,1.4250877E2,1.0297629E2,6.5753955E-1,-1.5559275E-1,-2.866478E-1,-1.1100433E0,3.0071718E-1,-2.3744838E-1,2.9629022E-1,1.6535597E0,-1.7100675E-1,1.251663E0,3.3744813E-3,1.1981206E0,-1.5332603E-1,-8.551921E-1,-5.4358405E-1,1.3697712E-1,-1.0359982E0,6.028314E-1],"split_indices":[8,0,7,0,0,4,6,0,0,9,6,9,2,4,0,0,0,0,6,8,7,0,2,0,0,2,0,0,0,0,0,9,2,4,0,9,9,0,0,0,0,0,0,0,0,0,0,0,0,0,0,0,0,0,0],"split_type":[0,0,0,0,0,0,0,0,0,0,0,0,0,0,0,0,0,0,0,0,0,0,0,0,0,0,0,0,0,0,0,0,0,0,0,0,0,0,0,0,0,0,0,0,0,0,0,0,0,0,0,0,0,0,0],"sum_hessian":[3.92E2,1E1,3.82E2,1E0,9E0,7.8E1,3.04E2,8E0,1E0,6.6E1,1.2E1,4.8E1,2.56E2,5.6E1,1E1,1E1,2E0,4E0,4.4E1,1.25E2,1.31E2,1E0,5.5E1,6E0,4E0,9E0,1E0,1E0,1E0,1E0,3E0,1.9E1,2.5E1,1.18E2,7E0,8.5E1,4.6E1,4.2E1,1.3E1,1E0,5E0,2E0,2E0,1E0,8E0,1.7E1,2E0,4E0,2.1E1,9.4E1,2.4E1,4.2E1,4.3E1,2E0,4.4E1],"tree_param":{"num_deleted":"0","num_feature":"10","num_nodes":"55","size_leaf_vector":"1"}},{"base_weights":[-3.9662156E-2,-2.3077448E1,6.2210107E-1,7.3056793E-1,-1.4153732E0,8.216561E0,-1.1025916E0,-2.7338433E-1,1.4803104E1,8.816039E0,-3.0217838E0,-6.237651E0,1.330569E0,2.2295881E1,4.406606E0,1.1763688E1,-1.5251943E1,-7.2415624E0,1.0945816E0,1.591861E1,-9.670459E0,-1.2627678E1,2.6223253E1,8.753098E0,-1.0121777E0,6.2402024E0,2.3943068E1,-1.2782369E0,9.078007E-1,-5.767493E0,-1.4500092E0,-3.0871778E0,1.0655333E1,-1.0757332E-1,1.1329563E0,-1.0862356E0,-1.7145091E-1,-7.8381366E-1,-1.6326217E-1,-2.794815E-1,1.4046689E0,1.29002E0,4.603154E-2,5.246032E-1,-4.179186E-1,1.3407104E0,-3.3454362E-1,1.8510737E-2,-4.988237E-1,-4.92572E-2,-1.141513E0,7.163064E-1,-3.138731E-1],"categories":[],"categories_nodes":[],"categories_segments":[],"categories_sizes":[],"default_left":[0,0,0,0,0,0,0,0,0,0,0,0,0,0,0,0,0,0,0,0,0,0,0,0,0,0,0,0,0,0,0,0,0,0,0,0,0,0,0,0,0,0,0,0,0,0,0,0,0,0,0,0,0],"id":7,"left_children":[1,3,5,-1,-1,7,9,11,13,15,17,19,-1,21,23,25,27,29,31,33,35,37,39,41,-1,43,45,-1,-1,47,-1,49,51,-1,-1,-1,-1,-1,-1,-1,-1,-1,-1,-1,-1,-1,-1,-1,-1,-1,-1,-1,-1],"loss_changes":[6.005861E3,2.581855E3,5.025636E3,0E0,0E0,3.9743237E3,5.984833E3,5.297125E3,3.0176963E3,3.797561E3,4.5762754E3,2.2075112E3,0E0,3.4857686E3,2.1057449E3,2.9451313E3,2.53133E3,4.0023247E3,5.3903174E3,5.3595667E2,1.7311675E3,3.443994E1,1.4064072E3,2.1126064E3,0E0,2.1360432E3,1.41077E3,0E0,0E0,3.1812131E3,0E0,3.8785676E3,2.6383613E3,0E0,0E0,0E0,0E0,0E0,0E0,0E0,0E0,0E0,0E0,0E0,0E0,0E0,0E0,0E0,0E0,0E0,0E0,0E0,0E0],"parents":[2147483647,0,0,1,1,2,2,5,5,6,6,7,7,8,8,9,9,10,10,11,11,13,13,14,14,15,15,16,16,17,17,18,18,19,19,20,20,21,21,22,22,23,23,25,25,26,26,29,29,31,31,32,32],"right_children":[2,4,6,-1,-1,8,10,12,14,16,18,20,-1,22,24,26,28,30,32,34,36,38,40,42,-1,44,46,-1,-1,48,-1,50,52,-1,-1,-1,-1,-1,-1,-1,-1,-1,-1,-1,-1,-1,-1,-1,-1,-1,-1,-1,-1],"split_conditions":[1.0226836E2,1.09013115E2,1.1642579E2,7.3056793E-1,-1.4153732E0,1.4622932E2,1.15498695E2,1.1442047E2,1.5952417E2,1.9517912E2,1.4964903E2,1.01696945E2,1.330569E0,1.0565369E2,1.8800377E2,1.1148596E2,1.806953E2,1.9621175E2,1.7779372E2,1.1642579E2,1.3902718E2,1.2252613E2,1.0565369E2,1.0297629E2,-1.0121777E0,1.0818131E2,1.9294865E2,-1.2782369E0,9.078007E-1,1.1916584E2,-1.4500092E0,1.9224324E2,1.7822736E2,-1.0757332E-1,1.1329563E0,-1.0862356E0,-1.7145091E-1,-7.8381366E-1,-1.6326217E-1,-2.794815E-1,1.4046689E0,1.29002E0,4.603154E-2,5.246032E-1,-4.179186E-1,1.3407104E0,-3.3454362E-1,1.8510737E-2,-4.988237E-1,-4.92572E-2,-1.141513E0,7.163064E-1,-3.138731E-1],"split_indices":[8,0,7,0,0,3,6,7,2,7,2,7,0,2,8,6,0,8,7,0,9,0,0,7,0,6,7,0,0,2,0,4,4,0,0,0,0,0,0,0,0,0,0,0,0,0,0,0,0,0,0,0,0],"split_type":[0,0,0,0,0,0,0,0,0,0,0,0,0,0,0,0,0,0,0,0,0,0,0,0,0,0,0,0,0,0,0,0,0,0,0,0,0,0,0,0,0,0,0,0,0,0,0,0,0,0,0,0,0],"sum_hessian":[3.92E2,1E1,3.82E2,1E0,9E0,7E1,3.12E2,3.1E1,3.9E1,5E1,2.62E2,2.6E1,5E0,2.2E1,1.7E1,4.5E1,5E0,1.29E2,1.33E2,3E0,2.3E1,2E0,2E1,1.5E1,2E0,3.2E1,1.3E1,4E0,1E0,1.22E2,7E0,9.3E1,4E1,1E0,2E0,7E0,1.6E1,1E0,1E0,1E0,1.9E1,4E0,1.1E1,2.5E1,7E0,1.2E1,1E0,5E1,7.2E1,8.5E1,8E0,3.3E1,7E0],"tree_param":{"num_deleted":"0","num_feature":"10","num_nodes":"53","size_leaf_vector":"1"}},{"base_weights":[-4.0377688E-2,-2.1985828E1,5.900148E-1,7.1230394E-1,-2.7033627E1,2.4474826E0,-6.0508223E0,-1.4152256E0,-3.8989145E-1,-1.51272955E1,3.360679E0,-1.0189886E1,1.7391564E0,-2.014916E1,5.8382773E-1,-1.8959408E0,6.2407575E0,1.3164622E-1,-1.3717524E1,-1.1767669E1,9.080953E0,-7.7462006E-1,-2.5884062E1,-1.0818616E1,3.1348913E0,3.1419187E0,1.2805364E1,-1.3853124E1,1.409996E1,-1.3418142E0,-1.7666403E1,2.8986561E0,-1.2236358E0,2.3764221E1,2.6022482E0,-2.1114324E-1,2.3925285E-1,-1.3740466E0,-2.8780594E-1,-2.9636937E-1,-1.1716098E0,1.0896984E0,-4.965891E-2,9.860049E-2,1.3203205E0,-6.051199E-1,7.418441E-1,-9.716571E-1,6.3017505E-1,1.2481068E0,-6.162191E-1,-4.991409E-1,5.511977E-1,-1.1438755E0,-3.754512E-1,-7.346527E-2,6.184616E-1,1.4249212E0,2.3303987E-3,6.2350607E-1,-5.2283835E-1],"categories":[],"categories_nodes":[],"categories_segments":[],"categories_sizes":[],"default_left":[0,0,0,0,0,0,0,0,0,0,0,0,0,0,0,0,0,0,0,0,0,0,0,0,0,0,0,0,0,0,0,0,0,0,0,0,0,0,0,0,0,0,0,0,0,0,0,0,0,0,0,0,0,0,0,0,0,0,0,0,0],"id":8,"left_children":[1,3,5,-1,7,9,11,-1,-1,13,15,17,19,21,-1,23,25,27,29,31,33,35,37,39,41,43,45,47,49,51,53,55,-1,57,59,-1,-1,-1,-1,-1,-1,-1,-1,-1,-1,-1,-1,-1,-1,-1,-1,-1,-1,-1,-1,-1,-1,-1,-1,-1,-1],"loss_changes":[5.449832E3,2.3969282E3,4.739168E3,0E0,2.3750977E1,4.8656055E3,2.7261523E3,0E0,0E0,2.2543523E3,4.3417227E3,2.0043892E3,3.0817922E3,1.4243936E3,0E0,4.6125396E3,3.7231587E3,3.1254834E3,1.9799722E3,2.1206382E3,1.8407308E3,9.689116E1,1.632334E2,2.143856E3,5.105359E3,3.4045278E3,3.1649941E3,1.4259532E3,2.60385E3,1.2854292E3,1.4690791E3,2.6637686E2,0E0,6.7237524E2,2.063368E3,0E0,0E0,0E0,0E0,0E0,0E0,0E0,0E0,0E0,0E0,0E0,0E0,0E0,0E0,0E0,0E0,0E0,0E0,0E0,0E0,0E0,0E0,0E0,0E0,0E0,0E0],"parents":[2147483647,0,0,1,1,2,2,4,4,5,5,6,6,9,9,10,10,11,11,12,12,13,13,15,15,16,16,17,17,18,18,19,19,20,20,21,21,22,22,23,23,24,24,25,25,26,26,27,27,28,28,29,29,30,30,31,31,33,33,34,34],"right_children":[2,4,6,-1,8,10,12,-1,-1,14,16,18,20,22,-1,24,26,28,30,32,34,36,38,40,42,44,46,48,50,52,54,56,-1,58,60,-1,-1,-1,-1,-1,-1,-1,-1,-1,-1,-1,-1,-1,-1,-1,-1,-1,-1,-1,-1,-1,-1,-1,-1,-1,-1],"split_conditions":[1.0226836E2,1.09013115E2,1.8039467E2,7.1230394E-1,1.8062326E2,1.04683525E2,1.6774855E2,-1.4152256E0,-3.8989145E-1,1.7590974E2,1.3702061E2,1.353618E2,1.4250877E2,1.2298428E2,5.8382773E-1,1.3357933E2,1.7299818E2,1.495676E2,1.0818131E2,1.3035733E2,1.2802008E2,1.01696945E2,1.8831578E2,1.2542405E2,1.112515E2,1.9754338E2,1.0519345E2,1.8604144E2,1.6376784E2,1.6214426E2,1.6179036E2,1.4581845E2,-1.2236358E0,1.9593654E2,1.4581845E2,-2.1114324E-1,2.3925285E-1,-1.3740466E0,-2.8780594E-1,-2.9636937E-1,-1.1716098E0,1.0896984E0,-4.965891E-2,9.860049E-2,1.3203205E0,-6.051199E-1,7.418441E-1,-9.716571E-1,6.3017505E-1,1.2481068E0,-6.162191E-1,-4.991409E-1,5.511977E-1,-1.1438755E0,-3.754512E-1,-7.346527E-2,6.184616E-1,1.4249212E0,2.3303987E-3,6.2350607E-1,-5.2283835E-1],"split_indices":[8,0,6,0,0,0,2,0,0,6,2,4,9,8,0,9,7,3,3,9,5,0,1,2,7,5,6,0,0,7,5,0,0,1,1,0,0,0,0,0,0,0,0,0,0,0,0,0,0,0,0,0,0,0,0,0,0,0,0,0,0],"split_type":[0,0,0,0,0,0,0,0,0,0,0,0,0,0,0,0,0,0,0,0,0,0,0,0,0,0,0,0,0,0,0,0,0,0,0,0,0,0,0,0,0,0,0,0,0,0,0,0,0,0,0,0,0,0,0,0,0,0,0,0,0],"sum_hessian":[3.92E2,1E1,3.82E2,1E0,9E0,2.99E2,8.3E1,8E0,1E0,1.4E1,2.85E2,5.4E1,2.9E1,1.2E1,2E0,1.01E2,1.84E2,1.4E1,4E1,1E1,1.9E1,3E0,9E0,3.6E1,6.5E1,1.26E2,5.8E1,7E0,7E0,1E1,3E1,5E0,5E0,5E0,1.4E1,2E0,1E0,8E0,1E0,2.7E1,9E0,1.1E1,5.4E1,1.21E2,5E0,4E0,5.4E1,6E0,1E0,5E0,2E0,6E0,4E0,1.9E1,1.1E1,4E0,1E0,4E0,1E0,8E0,6E0],"tree_param":{"num_deleted":"0","num_feature":"10","num_nodes":"61","size_leaf_vector":"1"}},{"base_weights":[-4.177474E-2,-2.0985888E1,5.598624E-1,6.9449615E-1,-2.5862461E1,7.198007E0,-1.1613616E0,-1.3523269E0,-3.8014412E-1,2.0330124E1,3.8025088E0,-2.6529014E0,9.713924E0,-3.1557807E-1,2.2527006E1,5.3337264E-1,1.9505312E1,-9.363197E-1,-1.4900688E1,-1.2444328E1,1.3565037E1,2.4442791E1,-1.07349016E-1,-9.057347E0,5.5803256E0,1.4439825E0,6.880091E0,1.0972878E0,-7.090208E0,9.99735E-1,-1.7796993E1,-1.8461452E1,-2.7338663E-1,-1.9282012E0,2.0695063E1,1.486969E-1,1.2932738E0,-7.3451805E-1,1.2941091E0,4.6464363E-1,-5.56389E-1,5.8258516E-1,-8.877106E-2,-3.0472193E-2,9.2613524E-1,-4.3688408E-1,1.3287593E0,-1.1235094E0,-2.8681323E-1,-1.1240194E0,-1.601162E-1,2.2720338E-3,-2.2776032E-2,-6.8635845E-1,5.096067E-1,1.2933539E0,-1.0315994E-1],"categories":[],"categories_nodes":[],"categories_segments":[],"categories_sizes":[],"default_left":[0,0,0,0,0,0,0,0,0,0,0,0,0,0,0,0,0,0,0,0,0,0,0,0,0,0,0,0,0,0,0,0,0,0,0,0,0,0,0,0,0,0,0,0,0,0,0,0,0,0,0,0,0,0,0,0,0],"id":9,"left_children":[1,3,5,-1,7,9,11,-1,-1,13,15,17,19,-1,21,23,25,27,29,31,33,35,-1,37,39,-1,41,43,45,-1,47,49,51,53,55,-1,-1,-1,-1,-1,-1,-1,-1,-1,-1,-1,-1,-1,-1,-1,-1,-1,-1,-1,-1,-1,-1],"loss_changes":[4.9638457E3,2.2300469E3,4.384415E3,0E0,1.0575195E1,3.4453108E3,4.9731514E3,0E0,0E0,1.0786392E3,3.275011E3,5.641592E3,3.326163E3,0E0,7.6152783E2,2.664354E3,1.1031895E3,2.9737385E3,3.6910796E3,4.3435736E2,3.5748545E3,3.5068555E2,0E0,4.1197007E3,2.336475E3,0E0,2.6849112E2,5.33484E3,3.504513E3,0E0,1.618332E3,1.7331238E2,1.9490704E-1,1.7129908E3,2.6429023E3,0E0,0E0,0E0,0E0,0E0,0E0,0E0,0E0,0E0,0E0,0E0,0E0,0E0,0E0,0E0,0E0,0E0,0E0,0E0,0E0,0E0,0E0],"parents":[2147483647,0,0,1,1,2,2,4,4,5,5,6,6,9,9,10,10,11,11,12,12,14,14,15,15,16,16,17,17,18,18,19,19,20,20,21,21,23,23,24,24,26,26,27,27,28,28,30,30,31,31,32,32,33,33,34,34],"right_children":[2,4,6,-1,8,10,12,-1,-1,14,16,18,20,-1,22,24,26,28,30,32,34,36,-1,38,40,-1,42,44,46,-1,48,50,52,54,56,-1,-1,-1,-1,-1,-1,-1,-1,-1,-1,-1,-1,-1,-1,-1,-1,-1,-1,-1,-1,-1,-1],"split_conditions":[1.0226836E2,1.09013115E2,1.1803458E2,6.9449615E-1,1.8062326E2,1.2350687E2,1.8988115E2,-1.3523269E0,-3.8014412E-1,1.0459906E2,1.8847464E2,1.8790108E2,1.2802008E2,-3.1557807E-1,1.9294865E2,1.4501775E2,1.5904088E2,1.7587976E2,1.1129052E2,1.9839583E2,1.3035733E2,9.902186E1,-1.07349016E-1,1.13653015E2,1.839148E2,1.4439825E0,1.7151E2,1.8088562E2,2.0473564E2,9.99735E-1,1.6733829E2,1.896199E2,1.4077612E2,1.7127315E2,1.8179292E2,1.486969E-1,1.2932738E0,-7.3451805E-1,1.2941091E0,4.6464363E-1,-5.56389E-1,5.8258516E-1,-8.877106E-2,-3.0472193E-2,9.2613524E-1,-4.3688408E-1,1.3287593E0,-1.1235094E0,-2.8681323E-1,-1.1240194E0,-1.601162E-1,2.2720338E-3,-2.2776032E-2,-6.8635845E-1,5.096067E-1,1.2933539E0,-1.0315994E-1],"split_indices":[8,0,7,0,0,1,2,0,0,8,4,8,7,0,2,3,6,1,0,2,0,3,0,7,2,0,0,8,1,0,9,0,0,9,4,0,0,0,0,0,0,0,0,0,0,0,0,0,0,0,0,0,0,0,0,0,0],"split_type":[0,0,0,0,0,0,0,0,0,0,0,0,0,0,0,0,0,0,0,0,0,0,0,0,0,0,0,0,0,0,0,0,0,0,0,0,0,0,0,0,0,0,0,0,0,0,0,0,0,0,0,0,0,0,0,0,0],"sum_hessian":[3.92E2,1E1,3.82E2,1E0,9E0,7.8E1,3.04E2,8E0,1E0,1.5E1,6.3E1,2.68E2,3.6E1,1E0,1.4E1,5.3E1,1E1,2.36E2,3.2E1,5E0,3.1E1,1.3E1,1E0,1.8E1,3.5E1,5E0,5E0,1.78E2,5.8E1,2E0,3E1,3E0,2E0,1E1,2.1E1,1E0,1.2E1,1.6E1,2E0,2.9E1,6E0,3E0,2E0,1.63E2,1.5E1,5.6E1,2E0,2.1E1,9E0,2E0,1E0,1E0,1E0,5E0,5E0,1.7E1,4E0],"tree_param":{"num_deleted":"0","num_feature":"10","num_nodes":"57","size_leaf_vector":"1"}},{"base_weights":[-3.0849796E-2,-2.0030954E1,5.436463E-1,6.77134E-1,-1.2371293E0,2.2672868E0,-5.6186843E0,-1.4383248E1,3.132639E0,2.60928E0,-9.149335E0,-1.9126266E1,5.4821223E-1,1.048075E1,1.2979653E0,1.4318179E0,-4.951279E0,-1.211148E1,8.652743E0,-7.060127E-1,-2.4581741E1,-9.100046E0,1.3404062E1,-5.320373E0,4.167442E0,-9.414093E0,1.1212543E1,3.2100406E0,-1.4225683E1,1.5501164E1,-1.0211154E1,-2.0308964E-1,2.3403321E-1,-1.3057215E0,-2.6968843E-1,6.649281E-1,-1.2599462E0,8.663689E-1,4.524131E-2,-4.4642335E-1,8.6105174E-1,-5.2606577E-1,2.8189725E-1,9.6624665E-2,-8.774976E-1,7.587805E-1,-1.1599312E-1,-4.609936E-1,5.01299E-1,-9.6336555E-1,-3.156272E-1,1.0047168E0,1.339414E-1,2.2151947E-3,-7.6805174E-1],"categories":[],"categories_nodes":[],"categories_segments":[],"categories_sizes":[],"default_left":[0,0,0,0,0,0,0,0,0,0,0,0,0,0,0,0,0,0,0,0,0,0,0,0,0,0,0,0,0,0,0,0,0,0,0,0,0,0,0,0,0,0,0,0,0,0,0,0,0,0,0,0,0,0,0],"id":10,"left_children":[1,3,5,-1,-1,7,9,11,13,15,17,19,-1,21,23,-1,25,27,29,31,33,35,37,39,41,43,45,47,49,51,53,-1,-1,-1,-1,-1,-1,-1,-1,-1,-1,-1,-1,-1,-1,-1,-1,-1,-1,-1,-1,-1,-1,-1,-1],"loss_changes":[4.526453E3,2.0751328E3,4.0808284E3,0E0,0E0,4.367631E3,2.4640796E3,2.0130591E3,3.8420728E3,5.258047E3,3.2160044E3,1.2890308E3,0E0,3.3847012E3,4.3901406E3,0E0,1.6204144E3,1.6976982E3,1.3209761E3,9.131791E1,1.5323682E2,3.2198486E3,2.436245E3,5.8469644E3,3.5368953E3,1.6032571E3,3.033545E2,6.854889E2,1.6736553E3,3.5843677E2,1.5912372E2,0E0,0E0,0E0,0E0,0E0,0E0,0E0,0E0,0E0,0E0,0E0,0E0,0E0,0E0,0E0,0E0,0E0,0E0,0E0,0E0,0E0,0E0,0E0,0E0],"parents":[2147483647,0,0,1,1,2,2,5,5,6,6,7,7,8,8,9,9,10,10,11,11,13,13,14,14,16,16,17,17,18,18,19,19,20,20,21,21,22,22,23,23,24,24,25,25,26,26,27,27,28,28,29,29,30,30],"right_children":[2,4,6,-1,-1,8,10,12,14,16,18,20,-1,22,24,-1,26,28,30,32,34,36,38,40,42,44,46,48,50,52,54,-1,-1,-1,-1,-1,-1,-1,-1,-1,-1,-1,-1,-1,-1,-1,-1,-1,-1,-1,-1,-1,-1,-1,-1],"split_conditions":[1.0226836E2,1.09013115E2,1.8039467E2,6.77134E-1,-1.2371293E0,1.04683525E2,1.353618E2,1.7590974E2,1.1921998E2,1.12190895E2,1.8644682E2,1.2298428E2,5.4821223E-1,1.1155207E2,1.2838087E2,1.4318179E0,1.9181465E2,1.1590116E2,1.9330598E2,1.01696945E2,1.8831578E2,1.11190315E2,1.699085E2,1.9225517E2,1.0756092E2,1.1634307E2,1.6320302E2,1.4207233E2,1.5623141E2,1.5301974E2,1.4077612E2,-2.0308964E-1,2.3403321E-1,-1.3057215E0,-2.6968843E-1,6.649281E-1,-1.2599462E0,8.663689E-1,4.524131E-2,-4.4642335E-1,8.6105174E-1,-5.2606577E-1,2.8189725E-1,9.6624665E-2,-8.774976E-1,7.587805E-1,-1.1599312E-1,-4.609936E-1,5.01299E-1,-9.6336555E-1,-3.156272E-1,1.0047168E0,1.339414E-1,2.2151947E-3,-7.6805174E-1],"split_indices":[8,0,6,0,0,0,4,6,1,0,2,8,0,8,9,0,9,7,8,0,1,3,3,0,3,7,7,4,5,3,0,0,0,0,0,0,0,0,0,0,0,0,0,0,0,0,0,0,0,0,0,0,0,0,0],"split_type":[0,0,0,0,0,0,0,0,0,0,0,0,0,0,0,0,0,0,0,0,0,0,0,0,0,0,0,0,0,0,0,0,0,0,0,0,0,0,0,0,0,0,0,0,0,0,0,0,0,0,0,0,0,0,0],"sum_hessian":[3.92E2,1E1,3.82E2,1E0,9E0,2.99E2,8.3E1,1.4E1,2.85E2,2.5E1,5.8E1,1.2E1,2E0,5.6E1,2.29E2,5E0,2E1,5E1,8E0,3E0,9E0,7E0,4.9E1,6.9E1,1.6E2,1.6E1,4E0,6E0,4.4E1,6E0,2E0,2E0,1E0,8E0,1E0,3E0,4E0,3.7E1,1.2E1,6E1,9E0,1.4E1,1.46E2,7E0,9E0,3E0,1E0,2E0,4E0,2.6E1,1.8E1,4E0,2E0,1E0,1E0],"tree_param":{"num_deleted":"0","num_feature":"10","num_nodes":"55","size_leaf_vector":"1"}},{"base_weights":[-3.093568E-2,-1.9080309E1,5.162551E-1,6.602055E-1,-2.3629162E1,7.170137E0,-9.947413E-1,-1.2372397E0,-3.3971214E-1,2.0390322E0,1.6529808E1,7.934792E0,-2.7225416E0,-2.5015404E0,2.4487017E1,2.3571705E1,5.4245105E0,1.06754675E1,-1.4399516E1,-1.2774237E0,-2.09023E0,1.3953975E1,-7.051481E0,1.2960856E0,3.6110383E-1,9.787102E0,2.9485296E1,1.0863144E0,-6.121385E-1,5.6183987E0,2.1833166E1,-1.1948423E0,8.271786E-1,-6.0545783E0,1.829207E0,8.5395855E-1,-2.761898E-1,-1.4122644E-1,-1.2448759E0,-1.5222664E-1,6.4811677E-1,4.3955728E-1,1.5403928E0,-3.8042742E-1,3.2533494E-1,4.7931597E-1,-3.9898214E-1,1.2265896E0,-3.3122405E-1,-1.6053866E-1,-7.0719975E-1,-1.22926466E-1,5.1328295E-1],"categories":[],"categories_nodes":[],"categories_segments":[],"categories_sizes":[],"default_left":[0,0,0,0,0,0,0,0,0,0,0,0,0,0,0,0,0,0,0,0,0,0,0,0,0,0,0,0,0,0,0,0,0,0,0,0,0,0,0,0,0,0,0,0,0,0,0,0,0,0,0,0,0],"id":11,"left_children":[1,3,5,-1,7,9,11,-1,-1,13,15,17,19,21,23,25,27,29,31,-1,33,35,37,-1,-1,39,41,-1,43,45,47,-1,-1,49,51,-1,-1,-1,-1,-1,-1,-1,-1,-1,-1,-1,-1,-1,-1,-1,-1,-1,-1],"loss_changes":[4.1063413E3,1.9274299E3,3.857811E3,0E0,1.9692871E1,3.3761023E3,4.850708E3,0E0,0E0,4.8518105E3,1.8271938E3,3.2754868E3,3.7425032E3,3.0932607E3,1.0950684E1,9.3417285E2,1.0957887E3,2.472894E3,2.1586E3,0E0,4.0043447E3,6.421886E2,2.3435752E3,0E0,0E0,2.8392487E2,2.8554688E0,0E0,4.977632E2,1.8570419E3,1.2376621E3,0E0,0E0,2.8991914E3,4.7277646E3,0E0,0E0,0E0,0E0,0E0,0E0,0E0,0E0,0E0,0E0,0E0,0E0,0E0,0E0,0E0,0E0,0E0,0E0],"parents":[2147483647,0,0,1,1,2,2,4,4,5,5,6,6,9,9,10,10,11,11,12,12,13,13,14,14,15,15,16,16,17,17,18,18,20,20,21,21,22,22,25,25,26,26,28,28,29,29,30,30,33,33,34,34],"right_children":[2,4,6,-1,8,10,12,-1,-1,14,16,18,20,22,24,26,28,30,32,-1,34,36,38,-1,-1,40,42,-1,44,46,48,-1,-1,50,52,-1,-1,-1,-1,-1,-1,-1,-1,-1,-1,-1,-1,-1,-1,-1,-1,-1,-1],"split_conditions":[1.0226836E2,1.09013115E2,1.1642579E2,6.602055E-1,1.8062326E2,1.6889075E2,1.15498695E2,-1.2372397E0,-3.3971214E-1,1.1442047E2,1.5623141E2,1.9517912E2,1.03195274E2,1.2350687E2,1.8101695E2,1.16794975E2,1.2154419E2,1.1148596E2,1.806953E2,-1.2774237E0,1.4964903E2,1.9593654E2,1.7514851E2,1.2960856E0,3.6110383E-1,1.0565369E2,1.02627686E2,1.0863144E0,1.0763017E2,1.0818131E2,1.9294865E2,-1.1948423E0,8.271786E-1,1.7518167E2,1.7127315E2,8.5395855E-1,-2.761898E-1,-1.4122644E-1,-1.2448759E0,-1.5222664E-1,6.4811677E-1,4.3955728E-1,1.5403928E0,-3.8042742E-1,3.2533494E-1,4.7931597E-1,-3.9898214E-1,1.2265896E0,-3.3122405E-1,-1.6053866E-1,-7.0719975E-1,-1.22926466E-1,5.1328295E-1],"split_indices":[8,0,7,0,0,3,6,0,0,7,2,7,9,1,2,9,6,6,0,0,2,0,0,0,0,2,6,0,7,6,7,0,0,4,7,0,0,0,0,0,0,0,0,0,0,0,0,0,0,0,0,0,0],"split_type":[0,0,0,0,0,0,0,0,0,0,0,0,0,0,0,0,0,0,0,0,0,0,0,0,0,0,0,0,0,0,0,0,0,0,0,0,0,0,0,0,0,0,0,0,0,0,0,0,0,0,0,0,0],"sum_hessian":[3.92E2,1E1,3.82E2,1E0,9E0,7E1,3.12E2,8E0,1E0,4.6E1,2.4E1,5E1,2.62E2,3.9E1,7E0,1.4E1,1E1,4.5E1,5E0,6E0,2.56E2,8E0,3.1E1,6E0,1E0,5E0,9E0,2E0,8E0,3.2E1,1.3E1,4E0,1E0,1.27E2,1.29E2,7E0,1E0,2.6E1,5E0,1E0,4E0,1E0,8E0,4E0,4E0,2.5E1,7E0,1.2E1,1E0,9.5E1,3.2E1,8.6E1,4.3E1],"tree_param":{"num_deleted":"0","num_feature":"10","num_nodes":"53","size_leaf_vector":"1"}},{"base_weights":[-2.3557182E-2,-1.8209633E1,4.988198E-1,6.437004E-1,-2.2605396E1,2.1098921E0,-5.260948E0,-1.2300198E0,-4.875136E-1,-1.363586E1,2.928341E0,2.4883015E0,-8.586703E0,-1.8204252E1,5.352895E-1,-1.7353681E0,5.4838543E0,1.3673037E0,-4.73241E0,-1.1345125E1,7.998436E0,-7.025337E-1,-2.3384514E1,9.4965804E-1,-1.737183E1,2.0889814E1,4.2944827E0,5.7476044E-1,-1.8096128E1,-7.951852E0,-2.0652245E1,1.4512772E1,-9.8678255E0,-1.9096857E-1,2.161995E-1,-1.2413901E0,-2.598732E-1,-3.9558432E-1,2.8347602E-1,1.1844177E0,-1.0998363E0,-7.3064727E-1,1.2533063E0,6.413126E-2,5.2821046E-1,-4.6160385E-1,4.6140432E-1,-1.2592545E-1,-1.0353975E0,-6.7000157E-1,3.587034E-2,-1.236329E0,5.8553573E-2,9.484739E-1,1.12367E-1,5.233002E-3,-7.4531996E-1],"categories":[],"categories_nodes":[],"categories_segments":[],"categories_sizes":[],"default_left":[0,0,0,0,0,0,0,0,0,0,0,0,0,0,0,0,0,0,0,0,0,0,0,0,0,0,0,0,0,0,0,0,0,0,0,0,0,0,0,0,0,0,0,0,0,0,0,0,0,0,0,0,0,0,0,0,0],"id":12,"left_children":[1,3,5,-1,7,9,11,-1,-1,13,15,17,19,21,-1,23,25,-1,27,29,31,33,35,37,39,41,43,45,47,49,51,53,55,-1,-1,-1,-1,-1,-1,-1,-1,-1,-1,-1,-1,-1,-1,-1,-1,-1,-1,-1,-1,-1,-1,-1,-1],"loss_changes":[3.7425784E3,1.7940222E3,3.565111E3,0E0,1.6598633E1,3.906059E3,2.1862234E3,0E0,0E0,1.8629236E3,3.418114E3,4.7961733E3,2.7899238E3,1.1621968E3,0E0,4.2988975E3,3.300121E3,0E0,1.4997952E3,1.4464375E3,1.1906909E3,7.918236E1,1.334502E2,3.7253962E3,3.3695522E3,2.2938057E3,3.2532998E3,1.4429824E3,1.9196265E2,1.8516482E3,1.1848589E3,3.4001294E2,1.5230139E2,0E0,0E0,0E0,0E0,0E0,0E0,0E0,0E0,0E0,0E0,0E0,0E0,0E0,0E0,0E0,0E0,0E0,0E0,0E0,0E0,0E0,0E0,0E0,0E0],"parents":[2147483647,0,0,1,1,2,2,4,4,5,5,6,6,9,9,10,10,11,11,12,12,13,13,15,15,16,16,18,18,19,19,20,20,21,21,22,22,23,23,24,24,25,25,26,26,27,27,28,28,29,29,30,30,31,31,32,32],"right_children":[2,4,6,-1,8,10,12,-1,-1,14,16,18,20,22,-1,24,26,-1,28,30,32,34,36,38,40,42,44,46,48,50,52,54,56,-1,-1,-1,-1,-1,-1,-1,-1,-1,-1,-1,-1,-1,-1,-1,-1,-1,-1,-1,-1,-1,-1,-1,-1],"split_conditions":[1.0226836E2,1.09013115E2,1.8039467E2,6.437004E-1,1.8088562E2,1.04683525E2,1.353618E2,-1.2300198E0,-4.875136E-1,1.7590974E2,1.3702061E2,1.12190895E2,1.8644682E2,1.2298428E2,5.352895E-1,1.307641E2,1.4195055E2,1.3673037E0,1.7992479E2,1.7986436E2,1.9330598E2,1.01696945E2,1.8831578E2,1.3357933E2,1.0391355E2,1.0756092E2,1.7299818E2,1.25780685E2,1.8789827E2,1.5623141E2,1.8924753E2,1.5301974E2,1.4077612E2,-1.9096857E-1,2.161995E-1,-1.2413901E0,-2.598732E-1,-3.9558432E-1,2.8347602E-1,1.1844177E0,-1.0998363E0,-7.3064727E-1,1.2533063E0,6.413126E-2,5.2821046E-1,-4.6160385E-1,4.6140432E-1,-1.2592545E-1,-1.0353975E0,-6.7000157E-1,3.587034E-2,-1.236329E0,5.8553573E-2,9.484739E-1,1.12367E-1,5.233002E-3,-7.4531996E-1],"split_indices":[8,0,6,0,2,0,4,0,0,6,2,0,2,8,0,2,2,0,8,1,8,0,1,9,8,0,7,9,6,5,7,3,0,0,0,0,0,0,0,0,0,0,0,0,0,0,0,0,0,0,0,0,0,0,0,0,0],"split_type":[0,0,0,0,0,0,0,0,0,0,0,0,0,0,0,0,0,0,0,0,0,0,0,0,0,0,0,0,0,0,0,0,0,0,0,0,0,0,0,0,0,0,0,0,0,0,0,0,0,0,0,0,0,0,0,0,0],"sum_hessian":[3.92E2,1E1,3.82E2,1E0,9E0,2.99E2,8.3E1,7E0,2E0,1.4E1,2.85E2,2.5E1,5.8E1,1.2E1,2E0,1.01E2,1.84E2,5E0,2E1,5E1,8E0,3E0,9E0,8.7E1,1.4E1,1.2E1,1.72E2,1.5E1,5E0,3.8E1,1.2E1,6E0,2E0,2E0,1E0,8E0,1E0,3E1,5.7E1,1E0,1.3E1,1E0,1.1E1,1.17E2,5.5E1,7E0,8E0,1E0,4E0,2.3E1,1.5E1,1E1,2E0,4E0,2E0,1E0,1E0],"tree_param":{"num_deleted":"0","num_feature":"10","num_nodes":"57","size_leaf_vector":"1"}},{"base_weights":[-2.8010419E-2,-1.7396767E1,4.709043E-1,6.2760776E-1,-2.1646875E1,6.467546E0,-1.0838681E0,-1.176206E0,-4.71263E-1,3.701517E0,2.022573E1,-2.3967168E0,8.49019E0,6.6705065E0,-1.2019749E1,1.3957331E0,9.6474085E0,-8.0058014E-1,-1.3787251E1,-1.9760399E-1,1.7671616E1,1.1115463E1,-9.0626353E-1,-9.4260305E-1,-5.0561525E-2,1.4339276E1,-6.940868E-2,2.3088816E-1,-1.2003555E1,8.958203E-1,-1.6410597E1,8.651243E0,-1.1974111E1,3.3744252E0,2.2910963E1,-2.9269567E-1,7.352235E-1,1.0379037E0,-3.4368932E-1,2.2782746E-1,-2.3204091E-1,8.9948624E-1,2.954534E-1,-1.5795326E-1,1.8885463E-1,-1.1063689E0,1.4143012E-1,-9.0345764E-1,2.5461528E-1,7.5802326E-1,-4.0786582E-1,-9.276193E-1,3.6832836E-1,5.5733466E-1,-1.649191E-1,1.2243615E0,9.989434E-2],"categories":[],"categories_nodes":[],"categories_segments":[],"categories_sizes":[],"default_left":[0,0,0,0,0,0,0,0,0,0,0,0,0,0,0,0,0,0,0,0,0,0,0,0,0,0,0,0,0,0,0,0,0,0,0,0,0,0,0,0,0,0,0,0,0,0,0,0,0,0,0,0,0,0,0,0,0],"id":13,"left_children":[1,3,5,-1,7,9,11,-1,-1,13,15,17,19,21,23,-1,25,27,29,31,33,35,37,-1,39,41,-1,43,45,-1,47,49,51,53,55,-1,-1,-1,-1,-1,-1,-1,-1,-1,-1,-1,-1,-1,-1,-1,-1,-1,-1,-1,-1,-1,-1],"loss_changes":[3.4137449E3,1.6718628E3,3.5778772E3,0E0,7.708496E0,2.9315215E3,3.8539812E3,0E0,0E0,3.2074878E3,7.880635E2,4.8796104E3,2.9548462E3,1.9297432E3,8.9859607E2,0E0,3.823479E2,2.7414282E3,3.0386182E3,2.187761E3,1.2710317E3,2.2785933E3,2.9869E3,0E0,1.26885216E2,4.756775E1,0E0,2.6326125E3,3.0657515E3,0E0,1.1975898E3,1.4365964E3,1.281722E3,3.4794315E2,3.796162E2,0E0,0E0,0E0,0E0,0E0,0E0,0E0,0E0,0E0,0E0,0E0,0E0,0E0,0E0,0E0,0E0,0E0,0E0,0E0,0E0,0E0,0E0],"parents":[2147483647,0,0,1,1,2,2,4,4,5,5,6,6,9,9,10,10,11,11,12,12,13,13,14,14,16,16,17,17,18,18,19,19,20,20,21,21,22,22,24,24,25,25,27,27,28,28,30,30,31,31,32,32,33,33,34,34],"right_children":[2,4,6,-1,8,10,12,-1,-1,14,16,18,20,22,24,-1,26,28,30,32,34,36,38,-1,40,42,-1,44,46,-1,48,50,52,54,56,-1,-1,-1,-1,-1,-1,-1,-1,-1,-1,-1,-1,-1,-1,-1,-1,-1,-1,-1,-1,-1,-1],"split_conditions":[1.0226836E2,1.09013115E2,1.1803458E2,6.2760776E-1,1.8088562E2,1.8847464E2,1.8988115E2,-1.176206E0,-4.71263E-1,1.7566116E2,1.5904088E2,1.8790108E2,1.5301974E2,1.667927E2,1.5493982E2,1.3957331E0,1.7151E2,1.9224324E2,1.1129052E2,1.4872842E2,1.3463197E2,1.1918788E2,1.0527097E2,-9.4260305E-1,1.6376784E2,1.21364075E2,-6.940868E-2,1.6224834E2,1.3432654E2,8.958203E-1,1.9129846E2,1.837408E2,1.8831578E2,1.3856894E2,1.8179292E2,-2.9269567E-1,7.352235E-1,1.0379037E0,-3.4368932E-1,2.2782746E-1,-2.3204091E-1,8.9948624E-1,2.954534E-1,-1.5795326E-1,1.8885463E-1,-1.1063689E0,1.4143012E-1,-9.0345764E-1,2.5461528E-1,7.5802326E-1,-4.0786582E-1,-9.276193E-1,3.6832836E-1,5.5733466E-1,-1.649191E-1,1.2243615E0,9.989434E-2],"split_indices":[8,0,7,0,2,4,2,0,0,9,6,8,5,0,0,0,0,4,0,6,0,0,1,0,0,0,0,7,9,0,3,0,1,8,4,0,0,0,0,0,0,0,0,0,0,0,0,0,0,0,0,0,0,0,0,0,0],"split_type":[0,0,0,0,0,0,0,0,0,0,0,0,0,0,0,0,0,0,0,0,0,0,0,0,0,0,0,0,0,0,0,0,0,0,0,0,0,0,0,0,0,0,0,0,0,0,0,0,0,0,0,0,0,0,0,0,0],"sum_hessian":[3.92E2,1E1,3.82E2,1E0,9E0,7.8E1,3.04E2,7E0,2E0,6.6E1,1.2E1,2.68E2,3.6E1,5.6E1,1E1,6E0,6E0,2.36E2,3.2E1,1.9E1,1.7E1,3.5E1,2.1E1,6E0,4E0,4E0,2E0,2.17E2,1.9E1,2E0,3E1,1.1E1,8E0,5E0,1.2E1,6E0,2.9E1,4E0,1.7E1,2E0,2E0,2E0,2E0,1.11E2,1.06E2,1.1E1,8E0,2.8E1,2E0,8E0,3E0,6E0,2E0,2E0,3E0,1.1E1,1E0],"tree_param":{"num_deleted":"0","num_feature":"10","num_nodes":"57","size_leaf_vector":"1"}},{"base_weights":[-2.021869E-2,1.5028268E0,-5.4746118E0,9.645223E0,3.6432076E-2,2.3946414E0,-8.738972E0,3.7893457E0,1.8869171E1,-4.4974933E0,2.558045E0,1.3052425E0,-4.493735E0,-1.1323476E1,7.4518814E0,1.5537167E1,-4.616069E-1,2.0800205E1,-3.4896013E-1,-1.239387E1,-2.2504713E-2,-2.085724E1,3.5479157E0,-8.6384325E0,1.04969845E1,-7.783474E0,-2.0628946E1,1.3861984E1,-9.988986E0,2.0024878E1,-3.969204E-1,-1.0421608E1,8.001595E0,2.3013964E1,1.3990073E-1,-8.751299E0,-1.5885262E0,3.6662538E0,-1.266807E1,-1.1306398E0,-2.5809786E-1,-1.2320907E1,4.8906097E0,1.5494461E0,-1.5924892E1,7.061569E-1,-1.0019074E-1,-1.2749948E1,-3.1413046E-1,-2.5061417E0,-2.3440569E1,9.0451586E-1,1.09705105E-1,-4.10614E-3,-7.450678E-1,1.0740029E0,2.823452E-1,5.73635E-1,-1.2285799E0,1.1874448E0,-8.17986E-2,1.369469E0,5.9429705E-1,6.706721E-1,-5.406773E-1,-1.10488154E-1,7.255665E-1,-9.4131434E-1,3.717022E-1,-7.877317E-1,2.188197E-1,5.962176E-1,5.9207894E-2,8.1914884E-1,-5.313634E-1,-9.160703E-1,1.4109306E-1,-2.34465E-1,-1.2831664E0,-5.3237766E-1,2.4393795E-1,2.7811623E-1,-4.6607685E-1,-3.4933218E-1,-1.3016346E0],"categories":[],"categories_nodes":[],"categories_segments":[],"categories_sizes":[],"default_left":[0,0,0,0,0,0,0,0,0,0,0,0,0,0,0,0,0,0,0,0,0,0,0,0,0,0,0,0,0,0,0,0,0,0,0,0,0,0,0,0,0,0,0,0,0,0,0,0,0,0,0,0,0,0,0,0,0,0,0,0,0,0,0,0,0,0,0,0,0,0,0,0,0,0,0,0,0,0,0,0,0,0,0,0,0],"id":14,"left_children":[1,3,5,7,9,11,13,15,17,19,21,-1,23,25,27,29,31,33,-1,35,37,39,41,43,45,47,49,51,53,55,-1,57,59,61,-1,63,-1,65,67,-1,-1,69,71,73,75,-1,-1,77,79,81,83,-1,-1,-1,-1,-1,-1,-1,-1,-1,-1,-1,-1,-1,-1,-1,-1,-1,-1,-1,-1,-1,-1,-1,-1,-1,-1,-1,-1,-1,-1,-1,-1,-1,-1],"loss_changes":[3.2729922E3,3.6771584E3,2.2301013E3,2.467171E3,3.0068997E3,4.3637544E3,2.6369458E3,1.505355E3,1.0436226E3,3.3213237E3,3.9911006E3,0E0,1.3954497E3,1.5853281E3,1.144647E3,1.00177844E3,2.0221399E3,6.130991E2,0E0,2.1217153E3,2.891877E3,7.615112E1,3.5332927E3,1.2866454E3,2.5494922E2,1.4798467E3,6.546172E2,3.0565784E2,1.4477478E2,2.516211E1,0E0,3.689749E3,2.0118062E3,4.0479736E2,0E0,1.516322E3,0E0,3.0909077E3,1.8730593E3,0E0,0E0,8.1429004E2,3.922484E3,1.6190955E3,5.00969E2,0E0,0E0,2.377822E3,9.641723E2,2.1681877E2,3.299253E2,0E0,0E0,0E0,0E0,0E0,0E0,0E0,0E0,0E0,0E0,0E0,0E0,0E0,0E0,0E0,0E0,0E0,0E0,0E0,0E0,0E0,0E0,0E0,0E0,0E0,0E0,0E0,0E0,0E0,0E0,0E0,0E0,0E0,0E0],"parents":[2147483647,0,0,1,1,2,2,3,3,4,4,5,5,6,6,7,7,8,8,9,9,10,10,12,12,13,13,14,14,15,15,16,16,17,17,19,19,20,20,21,21,22,22,23,23,24,24,25,25,26,26,27,27,28,28,29,29,31,31,32,32,33,33,35,35,37,37,38,38,41,41,42,42,43,43,44,44,47,47,48,48,49,49,50,50],"right_children":[2,4,6,8,10,12,14,16,18,20,22,-1,24,26,28,30,32,34,-1,36,38,40,42,44,46,48,50,52,54,56,-1,58,60,62,-1,64,-1,66,68,-1,-1,70,72,74,76,-1,-1,78,80,82,84,-1,-1,-1,-1,-1,-1,-1,-1,-1,-1,-1,-1,-1,-1,-1,-1,-1,-1,-1,-1,-1,-1,-1,-1,-1,-1,-1,-1,-1,-1,-1,-1,-1,-1],"split_conditions":[1.8039467E2,1.1474644E2,1.353618E2,1.6247334E2,1.3702061E2,1.12190895E2,1.8644682E2,1.1328401E2,1.9583069E2,1.356155E2,1.04683525E2,1.3052425E0,1.9181465E2,1.7986436E2,1.9330598E2,1.0667473E2,1.6284633E2,1.957964E2,-3.4896013E-1,1.3357933E2,1.806953E2,1.8831578E2,1.046746E2,1.1634307E2,1.6320302E2,1.5623141E2,1.0818131E2,1.5301974E2,1.4077612E2,1.741664E2,-3.969204E-1,1.01018486E2,1.2441459E2,1.4207233E2,1.3990073E-1,1.112515E2,-1.5885262E0,1.4720845E2,1.8535184E2,-1.1306398E0,-2.5809786E-1,1.8184058E2,1.6027072E2,1.9053351E2,1.3227248E2,7.061569E-1,-1.0019074E-1,1.667927E2,1.22744125E2,1.3952457E2,1.15975E2,9.0451586E-1,1.09705105E-1,-4.10614E-3,-7.450678E-1,1.0740029E0,2.823452E-1,5.73635E-1,-1.2285799E0,1.1874448E0,-8.17986E-2,1.369469E0,5.9429705E-1,6.706721E-1,-5.406773E-1,-1.10488154E-1,7.255665E-1,-9.4131434E-1,3.717022E-1,-7.877317E-1,2.188197E-1,5.962176E-1,5.9207894E-2,8.1914884E-1,-5.313634E-1,-9.160703E-1,1.4109306E-1,-2.34465E-1,-1.2831664E0,-5.3237766E-1,2.4393795E-1,2.7811623E-1,-4.6607685E-1,-3.4933218E-1,-1.3016346E0],"split_indices":[6,1,4,9,2,0,2,6,2,4,0,0,9,1,8,1,5,0,0,2,9,1,6,7,7,5,3,3,0,0,0,1,9,3,0,7,0,9,3,0,0,0,2,6,4,0,0,7,2,0,0,0,0,0,0,0,0,0,0,0,0,0,0,0,0,0,0,0,0,0,0,0,0,0,0,0,0,0,0,0,0,0,0,0,0],"split_type":[0,0,0,0,0,0,0,0,0,0,0,0,0,0,0,0,0,0,0,0,0,0,0,0,0,0,0,0,0,0,0,0,0,0,0,0,0,0,0,0,0,0,0,0,0,0,0,0,0,0,0,0,0,0,0,0,0,0,0,0,0,0,0,0,0,0,0,0,0,0,0,0,0,0,0,0,0,0,0,0,0,0,0,0,0],"sum_hessian":[3.92E2,3.07E2,8.5E1,4.6E1,2.61E2,2.5E1,6E1,2.9E1,1.7E1,9.3E1,1.68E2,5E0,2E1,5.2E1,8E0,7E0,2.2E1,1.6E1,1E0,3.3E1,6E1,6E0,1.62E2,1.6E1,4E0,3.9E1,1.3E1,6E0,2E0,6E0,1E0,1E1,1.2E1,1.4E1,2E0,2.9E1,4E0,4.7E1,1.3E1,5E0,1E0,1.2E1,1.5E2,7E0,9E0,3E0,1E0,2.3E1,1.6E1,2E0,1.1E1,4E0,2E0,1E0,1E0,5E0,1E0,4E0,6E0,4E0,8E0,9E0,5E0,2E0,2.7E1,3.1E1,1.6E1,1E1,3E0,1E1,2E0,5.1E1,9.9E1,3E0,4E0,8E0,1E0,1.5E1,8E0,5E0,1.1E1,1E0,1E0,2E0,9E0],"tree_param":{"num_deleted":"0","num_feature":"10","num_nodes":"85","size_leaf_vector":"1"}},{"base_weights":[-2.304017E-2,-1.6275312E1,4.437954E-1,6.104374E-1,-2.0344593E1,6.0875416E0,-1.0194825E0,-1.1052576E0,-4.434119E-1,3.4822414E0,1.9046587E1,6.7928114E0,-2.5050192E0,6.269653E0,-1.1278184E1,1.3119644E0,9.132945E0,-1.6370754E1,9.21559E0,-1.4488528E0,-1.4948148E1,9.3249855E0,-3.7806554E0,-1.7561695E1,-2.2563171E-1,1.3414841E1,-5.2393086E-2,-7.644119E-2,-9.849516E-1,-4.682247E-1,1.6310232E1,-5.296977E0,3.0016766E0,-1.7914547E1,1.0353364E0,5.965325E-1,-4.5830008E-1,3.9571175E-1,-6.770551E-1,-2.4637528E-1,-9.423071E-1,2.0747708E-1,-2.2627972E-1,8.404836E-1,2.7741978E-1,-2.0736209E-1,1.0880977E0,8.438906E-2,1.0306289E0,-4.7883826E-1,8.992666E-2,2.9496118E-1,-3.348984E-1,-1.0475534E0,-2.6110384E-1],"categories":[],"categories_nodes":[],"categories_segments":[],"categories_sizes":[],"default_left":[0,0,0,0,0,0,0,0,0,0,0,0,0,0,0,0,0,0,0,0,0,0,0,0,0,0,0,0,0,0,0,0,0,0,0,0,0,0,0,0,0,0,0,0,0,0,0,0,0,0,0,0,0,0,0],"id":15,"left_children":[1,3,5,-1,7,9,11,-1,-1,13,15,17,19,21,23,-1,25,27,29,31,33,35,37,39,41,43,-1,-1,-1,45,47,49,51,53,-1,-1,-1,-1,-1,-1,-1,-1,-1,-1,-1,-1,-1,-1,-1,-1,-1,-1,-1,-1,-1],"loss_changes":[2.9889683E3,1.523388E3,3.1691616E3,0E0,6.01416E0,2.6008892E3,3.556678E3,0E0,0E0,2.8273164E3,6.87334E2,2.9007551E3,3.3558398E3,1.7855559E3,7.5997473E2,0E0,3.1920892E2,2.168739E2,3.099281E3,4.0919326E3,2.4862837E3,2.2293342E3,1.7052305E3,2.0730957E1,1.12844536E2,4.0259583E1,0E0,0E0,0E0,1.7259562E3,1.6008926E3,3.9042358E3,3.159188E3,6.228706E2,0E0,0E0,0E0,0E0,0E0,0E0,0E0,0E0,0E0,0E0,0E0,0E0,0E0,0E0,0E0,0E0,0E0,0E0,0E0,0E0,0E0],"parents":[2147483647,0,0,1,1,2,2,4,4,5,5,6,6,9,9,10,10,11,11,12,12,13,13,14,14,16,16,17,17,18,18,19,19,20,20,21,21,22,22,23,23,24,24,25,25,29,29,30,30,31,31,32,32,33,33],"right_children":[2,4,6,-1,8,10,12,-1,-1,14,16,18,20,22,24,-1,26,28,30,32,34,36,38,40,42,44,-1,-1,-1,46,48,50,52,54,-1,-1,-1,-1,-1,-1,-1,-1,-1,-1,-1,-1,-1,-1,-1,-1,-1,-1,-1,-1,-1],"split_conditions":[1.0226836E2,1.09013115E2,1.1803458E2,6.104374E-1,1.8088562E2,1.8847464E2,1.15498695E2,-1.1052576E0,-4.434119E-1,1.7566116E2,1.5904088E2,1.1442047E2,1.9224324E2,1.839148E2,1.5493982E2,1.3119644E0,1.7151E2,1.2441459E2,1.07144035E2,1.6224834E2,2.001063E2,1.9219974E2,1.2984497E2,1.0565369E2,1.6376784E2,1.21364075E2,-5.2393086E-2,-7.644119E-2,-9.849516E-1,1.9754338E2,1.2542405E2,1.6376784E2,1.8576749E2,1.7472289E2,1.0353364E0,5.965325E-1,-4.5830008E-1,3.9571175E-1,-6.770551E-1,-2.4637528E-1,-9.423071E-1,2.0747708E-1,-2.2627972E-1,8.404836E-1,2.7741978E-1,-2.0736209E-1,1.0880977E0,8.438906E-2,1.0306289E0,-4.7883826E-1,8.992666E-2,2.9496118E-1,-3.348984E-1,-1.0475534E0,-2.6110384E-1],"split_indices":[8,0,7,0,2,4,6,0,0,9,6,9,4,2,0,0,0,0,6,7,4,6,1,0,0,0,0,0,0,9,3,0,6,9,0,0,0,0,0,0,0,0,0,0,0,0,0,0,0,0,0,0,0,0,0],"split_type":[0,0,0,0,0,0,0,0,0,0,0,0,0,0,0,0,0,0,0,0,0,0,0,0,0,0,0,0,0,0,0,0,0,0,0,0,0,0,0,0,0,0,0,0,0,0,0,0,0,0,0,0,0,0,0],"sum_hessian":[3.92E2,1E1,3.82E2,1E0,9E0,7.8E1,3.04E2,7E0,2E0,6.6E1,1.2E1,4.8E1,2.56E2,5.6E1,1E1,6E0,6E0,4E0,4.4E1,2.37E2,1.9E1,4.3E1,1.3E1,6E0,4E0,4E0,2E0,1E0,3E0,1.9E1,2.5E1,1.27E2,1.1E2,1.8E1,1E0,3.8E1,5E0,6E0,7E0,1E0,5E0,2E0,2E0,2E0,2E0,1.7E1,2E0,6E0,1.9E1,7.9E1,4.8E1,8.5E1,2.5E1,1.4E1,4E0],"tree_param":{"num_deleted":"0","num_feature":"10","num_nodes":"55","size_leaf_vector":"1"}},{"base_weights":[-2.107229E-2,-1.5546844E1,4.248926E-1,5.9517634E-1,-9.741117E-1,5.796165E0,-9.6774817E-1,3.2879736E0,1.827714E1,-2.1920784E0,7.959619E0,5.9536624E0,-1.0824047E1,1.2557372E0,8.828515E0,-7.075939E-1,-1.2786949E1,-1.40686245E1,1.1056031E1,1.0058442E1,-1.0338707E0,-1.6853422E1,-2.1811219E-1,1.2967679E1,-5.0646465E-2,2.3634471E-1,-1.0961145E1,8.3277863E-1,-1.5223743E1,-2.1564534E0,-1.0645627E0,-2.083992E0,1.6859694E1,-2.9518318E-1,6.723826E-1,9.5854515E-1,-3.294435E-1,-2.4021606E-1,-9.0304434E-1,2.0056127E-1,-2.1873729E-1,8.124675E-1,2.6817247E-1,-5.370984E-1,6.091507E-2,-1.0139787E0,1.3406657E-1,-9.519259E-1,-2.654435E-1,7.967377E-3,-1.6970138E-1,-5.970638E-1,4.060312E-1,1.11049E0,-1.0002861E-1],"categories":[],"categories_nodes":[],"categories_segments":[],"categories_sizes":[],"default_left":[0,0,0,0,0,0,0,0,0,0,0,0,0,0,0,0,0,0,0,0,0,0,0,0,0,0,0,0,0,0,0,0,0,0,0,0,0,0,0,0,0,0,0,0,0,0,0,0,0,0,0,0,0,0,0],"id":16,"left_children":[1,3,5,-1,-1,7,9,11,13,15,17,19,21,-1,23,25,27,29,31,33,35,37,39,41,-1,43,45,-1,47,49,-1,51,53,-1,-1,-1,-1,-1,-1,-1,-1,-1,-1,-1,-1,-1,-1,-1,-1,-1,-1,-1,-1,-1,-1],"loss_changes":[2.7277178E3,1.4202139E3,2.870546E3,0E0,0E0,2.4129746E3,3.3511123E3,2.5848657E3,6.1815137E2,4.221763E3,2.679258E3,1.6452896E3,6.997429E2,0E0,2.9828284E2,2.296448E3,2.6211577E3,3.842724E2,2.551724E3,2.0269514E3,2.5955396E3,1.5071655E1,1.0544713E2,3.762024E1,0E0,2.3631768E3,2.5969053E3,0E0,1.0714395E3,9.138758E0,0E0,1.2034583E3,2.365234E3,0E0,0E0,0E0,0E0,0E0,0E0,0E0,0E0,0E0,0E0,0E0,0E0,0E0,0E0,0E0,0E0,0E0,0E0,0E0,0E0,0E0,0E0],"parents":[2147483647,0,0,1,1,2,2,5,5,6,6,7,7,8,8,9,9,10,10,11,11,12,12,14,14,15,15,16,16,17,17,18,18,19,19,20,20,21,21,22,22,23,23,25,25,26,26,28,28,29,29,31,31,32,32],"right_children":[2,4,6,-1,-1,8,10,12,14,16,18,20,22,-1,24,26,28,30,32,34,36,38,40,42,-1,44,46,-1,48,50,-1,52,54,-1,-1,-1,-1,-1,-1,-1,-1,-1,-1,-1,-1,-1,-1,-1,-1,-1,-1,-1,-1,-1,-1],"split_conditions":[1.0226836E2,1.09013115E2,1.1803458E2,5.9517634E-1,-9.741117E-1,1.8847464E2,1.8988115E2,1.7566116E2,1.5904088E2,1.8790108E2,1.2732581E2,1.667927E2,1.5493982E2,1.2557372E0,1.7151E2,1.9224324E2,1.1129052E2,1.2802008E2,1.3035733E2,1.1918788E2,1.0527097E2,1.0565369E2,1.6376784E2,1.21364075E2,-5.0646465E-2,1.25780685E2,1.3432654E2,8.3277863E-1,1.6733829E2,1.4077612E2,-1.0645627E0,1.7127315E2,1.8179292E2,-2.9518318E-1,6.723826E-1,9.5854515E-1,-3.294435E-1,-2.4021606E-1,-9.0304434E-1,2.0056127E-1,-2.1873729E-1,8.124675E-1,2.6817247E-1,-5.370984E-1,6.091507E-2,-1.0139787E0,1.3406657E-1,-9.519259E-1,-2.654435E-1,7.967377E-3,-1.6970138E-1,-5.970638E-1,4.060312E-1,1.11049E0,-1.0002861E-1],"split_indices":[8,0,7,0,0,4,2,9,6,8,7,0,0,0,0,4,0,5,0,0,1,0,0,0,0,7,9,0,9,0,0,9,4,0,0,0,0,0,0,0,0,0,0,0,0,0,0,0,0,0,0,0,0,0,0],"split_type":[0,0,0,0,0,0,0,0,0,0,0,0,0,0,0,0,0,0,0,0,0,0,0,0,0,0,0,0,0,0,0,0,0,0,0,0,0,0,0,0,0,0,0,0,0,0,0,0,0,0,0,0,0,0,0],"sum_hessian":[3.92E2,1E1,3.82E2,1E0,9E0,7.8E1,3.04E2,6.6E1,1.2E1,2.68E2,3.6E1,5.6E1,1E1,6E0,6E0,2.36E2,3.2E1,4E0,3.2E1,3.5E1,2.1E1,6E0,4E0,4E0,2E0,2.17E2,1.9E1,2E0,3E1,2E0,2E0,1E1,2.2E1,6E0,2.9E1,4E0,1.7E1,1E0,5E0,2E0,2E0,2E0,2E0,1.7E1,2E2,1.1E1,8E0,2.1E1,9E0,1E0,1E0,5E0,5E0,1.7E1,5E0],"tree_param":{"num_deleted":"0","num_feature":"10","num_nodes":"55","size_leaf_vector":"1"}},{"base_weights":[-2.102566E-2,1.3545098E0,-4.947118E0,1.24795E0,8.826239E-1,2.5482984E0,-8.060785E0,8.369325E0,-4.5563528E-1,1.2644234E0,-4.07024E0,-1.0481938E1,7.092764E0,4.1097975E0,1.8865833E1,-1.2367343E1,3.8302037E-1,-7.9912295E0,1.00751705E1,-7.1445136E0,-1.9268728E1,-7.2632426E-1,1.1610981E1,5.49115E0,-1.0368712E0,2.219445E1,5.827835E0,-1.754351E1,8.81797E-1,-1.2744744E1,1.1839186E0,1.1758652E0,-1.4525782E1,6.710369E-1,-8.267746E-2,-1.1915444E1,1.1182897E-2,-2.402438E0,-2.1879574E1,1.7095444E1,1.8526573E0,-1.6788055E-1,5.3537357E-1,1.1899812E0,1.9369736E-1,-6.101176E-2,6.7430115E-1,-1.1844825E0,7.4687934E-1,-8.632183E-1,4.790995E-1,-7.669846E-1,9.648051E-2,7.4084663E-1,-4.986081E-1,-9.003307E-1,-2.0081585E-2,-2.140014E-1,-1.208279E0,2.2112277E-1,-5.7301813E-1,2.7801284E-1,-4.581957E-1,-3.2615587E-1,-1.2149277E0,2.6066896E-1,9.381308E-1,1.1833166E-1,7.7682496E-3],"categories":[],"categories_nodes":[],"categories_segments":[],"categories_sizes":[],"default_left":[0,0,0,0,0,0,0,0,0,0,0,0,0,0,0,0,0,0,0,0,0,0,0,0,0,0,0,0,0,0,0,0,0,0,0,0,0,0,0,0,0,0,0,0,0,0,0,0,0,0,0,0,0,0,0,0,0,0,0,0,0,0,0,0,0,0,0,0,0],"id":17,"left_children":[1,3,5,-1,7,9,11,13,15,-1,17,19,21,23,25,27,29,31,33,35,37,-1,39,41,-1,43,45,47,-1,49,51,53,55,-1,-1,57,59,61,63,65,67,-1,-1,-1,-1,-1,-1,-1,-1,-1,-1,-1,-1,-1,-1,-1,-1,-1,-1,-1,-1,-1,-1,-1,-1,-1,-1,-1,-1],"loss_changes":[2.6696746E3,3.4086672E3,2.0276294E3,0E0,3.039615E3,4.016104E3,2.3123792E3,1.979133E3,2.5821106E3,0E0,1.2452572E3,1.4165732E3,1.0477909E3,1.2808468E3,4.3483496E2,2.9495308E3,2.5594775E3,1.035429E3,2.1838794E2,1.3657067E3,5.639292E2,0E0,3.9648132E2,1.559165E3,0E0,2.0187744E2,2.3235791E2,3.3483647E3,0E0,1.5781445E3,2.8512275E3,1.3643247E3,4.8440625E2,0E0,0E0,2.1414075E3,9.109528E2,2.1247243E2,2.8726123E2,1.2305908E0,3.1217766E0,0E0,0E0,0E0,0E0,0E0,0E0,0E0,0E0,0E0,0E0,0E0,0E0,0E0,0E0,0E0,0E0,0E0,0E0,0E0,0E0,0E0,0E0,0E0,0E0,0E0,0E0,0E0,0E0],"parents":[2147483647,0,0,1,1,2,2,4,4,5,5,6,6,7,7,8,8,10,10,11,11,12,12,13,13,14,14,15,15,16,16,17,17,18,18,19,19,20,20,22,22,23,23,25,25,26,26,27,27,29,29,30,30,31,31,32,32,35,35,36,36,37,37,38,38,39,39,40,40],"right_children":[2,4,6,-1,8,10,12,14,16,-1,18,20,22,24,26,28,30,32,34,36,38,-1,40,42,-1,44,46,48,-1,50,52,54,56,-1,-1,58,60,62,64,66,68,-1,-1,-1,-1,-1,-1,-1,-1,-1,-1,-1,-1,-1,-1,-1,-1,-1,-1,-1,-1,-1,-1,-1,-1,-1,-1,-1,-1],"split_conditions":[1.8039467E2,1.0226836E2,1.353618E2,1.24795E0,1.1474644E2,1.12190895E2,1.8644682E2,1.7127315E2,1.06875916E2,1.2644234E0,1.9181465E2,1.7986436E2,1.1590116E2,1.9612933E2,1.8595605E2,1.6889075E2,1.04683525E2,1.1634307E2,1.6320302E2,1.5623141E2,1.0818131E2,-7.2632426E-1,1.5301974E2,1.3627394E2,-1.0368712E0,1.7295624E2,1.1260324E2,1.896199E2,8.81797E-1,1.7590974E2,1.0327668E2,1.9053351E2,1.7346387E2,6.710369E-1,-8.267746E-2,1.667927E2,1.9612933E2,1.3952457E2,1.15975E2,1.1142664E2,1.2802008E2,-1.6788055E-1,5.3537357E-1,1.1899812E0,1.9369736E-1,-6.101176E-2,6.7430115E-1,-1.1844825E0,7.4687934E-1,-8.632183E-1,4.790995E-1,-7.669846E-1,9.648051E-2,7.4084663E-1,-4.986081E-1,-9.003307E-1,-2.0081585E-2,-2.140014E-1,-1.208279E0,2.2112277E-1,-5.7301813E-1,2.7801284E-1,-4.581957E-1,-3.2615587E-1,-1.2149277E0,2.6066896E-1,9.381308E-1,1.1833166E-1,7.7682496E-3],"split_indices":[6,5,4,0,1,0,2,9,9,0,9,1,3,3,5,3,0,7,7,5,3,0,3,8,0,6,1,0,0,6,2,6,3,0,0,7,5,0,0,1,1,0,0,0,0,0,0,0,0,0,0,0,0,0,0,0,0,0,0,0,0,0,0,0,0,0,0,0,0],"split_type":[0,0,0,0,0,0,0,0,0,0,0,0,0,0,0,0,0,0,0,0,0,0,0,0,0,0,0,0,0,0,0,0,0,0,0,0,0,0,0,0,0,0,0,0,0,0,0,0,0,0,0,0,0,0,0,0,0,0,0,0,0,0,0,0,0,0,0,0,0],"sum_hessian":[3.92E2,3.07E2,8.5E1,5E0,3.02E2,2.5E1,6E1,4.5E1,2.57E2,5E0,2E1,5.2E1,8E0,3.3E1,1.2E1,1.6E1,2.41E2,1.6E1,4E0,3.9E1,1.3E1,1E0,7E0,3.2E1,1E0,9E0,3E0,1.4E1,2E0,1.3E1,2.28E2,7E0,9E0,3E0,1E0,2.3E1,1.6E1,2E0,1.1E1,4E0,3E0,1.2E1,2E1,8E0,1E0,2E0,1E0,1.2E1,2E0,1.1E1,2E0,9E0,2.19E2,3E0,4E0,7E0,2E0,1.5E1,8E0,1.2E1,4E0,1E0,1E0,2E0,9E0,1E0,3E0,2E0,1E0],"tree_param":{"num_deleted":"0","num_feature":"10","num_nodes":"69","size_leaf_vector":"1"}},{"base_weights":[-1.9357055E-2,1.2931638E0,-4.719788E0,1.1959518E0,8.4085894E-1,2.4660618E0,-7.705236E0,7.9797187E0,-4.352202E-1,1.2117393E0,-3.8710048E0,-1.0023794E1,6.804636E0,3.8846207E0,1.807615E1,-1.1722848E1,3.5951075E-1,-7.63156E0,9.689084E0,-6.831643E0,-1.8428242E1,-7.081663E-1,1.1196047E1,5.22773E0,-1.0109495E0,2.1223091E1,5.689762E0,-1.669551E1,8.5240406E-1,-1.2134942E1,1.1217939E0,1.1473541E0,-1.3891535E1,6.4587307E-1,-8.0610655E-2,-1.137893E1,-1.008202E-2,-2.3423793E0,-2.091402E1,8.2402176E-1,1.7915497E0,-1.6013236E-1,5.0987977E-1,1.137093E0,1.8885498E-1,-5.897827E-2,6.5744364E-1,-1.1298141E0,7.219836E-1,-8.23654E-1,4.6312967E-1,-1.7716256E-1,1.8251482E-1,7.1306497E-1,-4.7866365E-1,-8.6094135E-1,-1.9412233E-2,-2.0396994E-1,-1.1545776E0,-5.7210034E-1,2.1937941E-1,2.7106246E-1,-4.4674093E-1,-3.1528398E-1,-1.160256E0,1.1438727E-1,7.5740814E-3],"categories":[],"categories_nodes":[],"categories_segments":[],"categories_sizes":[],"default_left":[0,0,0,0,0,0,0,0,0,0,0,0,0,0,0,0,0,0,0,0,0,0,0,0,0,0,0,0,0,0,0,0,0,0,0,0,0,0,0,0,0,0,0,0,0,0,0,0,0,0,0,0,0,0,0,0,0,0,0,0,0,0,0,0,0,0,0],"id":18,"left_children":[1,3,5,-1,7,9,11,13,15,-1,17,19,21,23,25,27,29,31,33,35,37,-1,39,41,-1,43,45,47,-1,49,51,53,55,-1,-1,57,59,61,63,-1,65,-1,-1,-1,-1,-1,-1,-1,-1,-1,-1,-1,-1,-1,-1,-1,-1,-1,-1,-1,-1,-1,-1,-1,-1,-1,-1],"loss_changes":[2.430683E3,3.1318955E3,1.8639576E3,0E0,2.763727E3,3.6805088E3,2.1203699E3,1.8316912E3,2.3186365E3,0E0,1.1448055E3,1.2960029E3,9.872837E2,1.2064078E3,3.8597607E2,2.7167844E3,2.3184956E3,9.5018677E2,2.0324997E2,1.2406693E3,5.1081445E2,0E0,3.680506E2,1.4152878E3,0E0,1.7906543E2,2.2046623E2,3.082107E3,0E0,1.4521404E3,2.714121E3,1.261245E3,4.4260876E2,0E0,0E0,1.9577192E3,9.0485803E2,2.0198163E2,2.5530566E2,0E0,2.9086256E0,0E0,0E0,0E0,0E0,0E0,0E0,0E0,0E0,0E0,0E0,0E0,0E0,0E0,0E0,0E0,0E0,0E0,0E0,0E0,0E0,0E0,0E0,0E0,0E0,0E0,0E0],"parents":[2147483647,0,0,1,1,2,2,4,4,5,5,6,6,7,7,8,8,10,10,11,11,12,12,13,13,14,14,15,15,16,16,17,17,18,18,19,19,20,20,22,22,23,23,25,25,26,26,27,27,29,29,30,30,31,31,32,32,35,35,36,36,37,37,38,38,40,40],"right_children":[2,4,6,-1,8,10,12,14,16,-1,18,20,22,24,26,28,30,32,34,36,38,-1,40,42,-1,44,46,48,-1,50,52,54,56,-1,-1,58,60,62,64,-1,66,-1,-1,-1,-1,-1,-1,-1,-1,-1,-1,-1,-1,-1,-1,-1,-1,-1,-1,-1,-1,-1,-1,-1,-1,-1,-1],"split_conditions":[1.8039467E2,1.0226836E2,1.353618E2,1.1959518E0,1.1474644E2,1.12190895E2,1.8644682E2,1.7127315E2,1.06875916E2,1.2117393E0,1.9181465E2,1.7986436E2,1.1590116E2,1.9612933E2,1.8595605E2,1.6889075E2,1.04683525E2,1.1634307E2,1.6320302E2,1.5623141E2,1.0818131E2,-7.081663E-1,1.5301974E2,1.3627394E2,-1.0109495E0,1.7295624E2,1.1260324E2,1.896199E2,8.5240406E-1,1.7590974E2,1.3702061E2,1.9053351E2,1.7346387E2,6.4587307E-1,-8.0610655E-2,1.667927E2,1.1916584E2,1.3952457E2,1.15975E2,8.2402176E-1,1.2802008E2,-1.6013236E-1,5.0987977E-1,1.137093E0,1.8885498E-1,-5.897827E-2,6.5744364E-1,-1.1298141E0,7.219836E-1,-8.23654E-1,4.6312967E-1,-1.7716256E-1,1.8251482E-1,7.1306497E-1,-4.7866365E-1,-8.6094135E-1,-1.9412233E-2,-2.0396994E-1,-1.1545776E0,-5.7210034E-1,2.1937941E-1,2.7106246E-1,-4.4674093E-1,-3.1528398E-1,-1.160256E0,1.1438727E-1,7.5740814E-3],"split_indices":[6,5,4,0,1,0,2,9,9,0,9,1,3,3,5,3,0,7,7,5,3,0,3,8,0,6,1,0,0,6,2,6,3,0,0,7,8,0,0,0,1,0,0,0,0,0,0,0,0,0,0,0,0,0,0,0,0,0,0,0,0,0,0,0,0,0,0],"split_type":[0,0,0,0,0,0,0,0,0,0,0,0,0,0,0,0,0,0,0,0,0,0,0,0,0,0,0,0,0,0,0,0,0,0,0,0,0,0,0,0,0,0,0,0,0,0,0,0,0,0,0,0,0,0,0,0,0,0,0,0,0,0,0,0,0,0,0],"sum_hessian":[3.92E2,3.07E2,8.5E1,5E0,3.02E2,2.5E1,6E1,4.5E1,2.57E2,5E0,2E1,5.2E1,8E0,3.3E1,1.2E1,1.6E1,2.41E2,1.6E1,4E0,3.9E1,1.3E1,1E0,7E0,3.2E1,1E0,9E0,3E0,1.4E1,2E0,1.3E1,2.28E2,7E0,9E0,3E0,1E0,2.3E1,1.6E1,2E0,1.1E1,4E0,3E0,1.2E1,2E1,8E0,1E0,2E0,1E0,1.2E1,2E0,1.1E1,2E0,8E1,1.48E2,3E0,4E0,7E0,2E0,1.5E1,8E0,4E0,1.2E1,1E0,1E0,2E0,9E0,2E0,1E0],"tree_param":{"num_deleted":"0","num_feature":"10","num_nodes":"67","size_leaf_vector":"1"}},{"base_weights":[-1.6974064E-2,-1.4412074E1,3.9650655E-1,5.733223E-1,-9.0732855E-1,5.3278008E0,-8.8207954E-1,2.933946E0,1.7255531E1,6.1432753E0,-2.2181118E0,5.4585767E0,-1.0414955E1,1.1741645E0,8.562696E0,8.671105E0,-1.3418027E1,-1.2627444E0,-1.3476079E1,8.390197E0,-4.144985E0,-1.5908058E1,-6.4161986E-1,1.2614935E1,-5.2263387E-2,3.9922316E0,1.8412106E1,-1.0900258E0,7.123604E-1,-4.8322873E0,2.864861E0,-1.628877E1,9.9912643E-1,-1.113429E0,4.8105332E-1,3.2191685E-1,-6.4436346E-1,-2.3219338E-1,-8.505723E-1,1.6727753E-1,-2.2074585E-1,6.996798E-1,1.775074E-1,3.9390177E-1,-4.0821037E-1,1.0395495E0,-3.1283456E-1,-2.928108E-1,1.0763804E0,2.7002022E-1,-2.8160614E-1,-9.5082504E-1,-2.4239121E-1],"categories":[],"categories_nodes":[],"categories_segments":[],"categories_sizes":[],"default_left":[0,0,0,0,0,0,0,0,0,0,0,0,0,0,0,0,0,0,0,0,0,0,0,0,0,0,0,0,0,0,0,0,0,0,0,0,0,0,0,0,0,0,0,0,0,0,0,0,0,0,0,0,0],"id":19,"left_children":[1,3,5,-1,-1,7,9,11,13,15,17,19,21,-1,23,25,27,29,31,33,35,37,39,41,-1,43,45,-1,-1,47,49,51,-1,-1,-1,-1,-1,-1,-1,-1,-1,-1,-1,-1,-1,-1,-1,-1,-1,-1,-1,-1,-1],"loss_changes":[2.3448877E3,1.2711521E3,2.4195469E3,0E0,0E0,2.2050806E3,2.8763872E3,2.314821E3,5.0269922E2,2.5392844E3,2.7471455E3,1.639555E3,5.8033826E2,0E0,2.857224E2,1.9318787E3,1.7020176E3,3.520456E3,2.2076655E3,1.8746726E3,1.3782863E3,8.002441E0,8.999422E1,1.2806946E1,0E0,1.5286814E3,9.516616E2,0E0,0E0,3.5808738E3,2.4218513E3,5.0075928E2,0E0,0E0,0E0,0E0,0E0,0E0,0E0,0E0,0E0,0E0,0E0,0E0,0E0,0E0,0E0,0E0,0E0,0E0,0E0,0E0,0E0],"parents":[2147483647,0,0,1,1,2,2,5,5,6,6,7,7,8,8,9,9,10,10,11,11,12,12,14,14,15,15,16,16,17,17,18,18,19,19,20,20,21,21,22,22,23,23,25,25,26,26,29,29,30,30,31,31],"right_children":[2,4,6,-1,-1,8,10,12,14,16,18,20,22,-1,24,26,28,30,32,34,36,38,40,42,-1,44,46,-1,-1,48,50,52,-1,-1,-1,-1,-1,-1,-1,-1,-1,-1,-1,-1,-1,-1,-1,-1,-1,-1,-1,-1,-1],"split_conditions":[1.0226836E2,1.09013115E2,1.1803458E2,5.733223E-1,-9.0732855E-1,1.8847464E2,1.15498695E2,1.7566116E2,1.5904088E2,1.9517912E2,1.9224324E2,1.839148E2,1.5493982E2,1.1741645E0,1.7151E2,1.1148596E2,1.806953E2,1.6224834E2,2.001063E2,9.5792175E1,1.2984497E2,1.0565369E2,1.6376784E2,1.9041591E2,-5.2263387E-2,1.0818131E2,1.9294865E2,-1.0900258E0,7.123604E-1,1.9041591E2,1.8576749E2,1.7472289E2,9.9912643E-1,-1.113429E0,4.8105332E-1,3.2191685E-1,-6.4436346E-1,-2.3219338E-1,-8.505723E-1,1.6727753E-1,-2.2074585E-1,6.996798E-1,1.775074E-1,3.9390177E-1,-4.0821037E-1,1.0395495E0,-3.1283456E-1,-2.928108E-1,1.0763804E0,2.7002022E-1,-2.8160614E-1,-9.5082504E-1,-2.4239121E-1],"split_indices":[8,0,7,0,0,4,6,9,6,7,4,2,0,0,0,6,0,7,4,4,1,0,0,3,0,6,7,0,0,4,6,9,0,0,0,0,0,0,0,0,0,0,0,0,0,0,0,0,0,0,0,0,0],"split_type":[0,0,0,0,0,0,0,0,0,0,0,0,0,0,0,0,0,0,0,0,0,0,0,0,0,0,0,0,0,0,0,0,0,0,0,0,0,0,0,0,0,0,0,0,0,0,0,0,0,0,0,0,0],"sum_hessian":[3.92E2,1E1,3.82E2,1E0,9E0,7.8E1,3.04E2,6.6E1,1.2E1,4.8E1,2.56E2,5.6E1,1E1,6E0,6E0,4.3E1,5E0,2.37E2,1.9E1,4.3E1,1.3E1,6E0,4E0,4E0,2E0,3E1,1.3E1,4E0,1E0,1.27E2,1.1E2,1.8E1,1E0,1E0,4.2E1,6E0,7E0,1E0,5E0,2E0,2E0,3E0,1E0,2.3E1,7E0,1.2E1,1E0,1.23E2,4E0,8.5E1,2.5E1,1.4E1,4E0],"tree_param":{"num_deleted":"0","num_feature":"10","num_nodes":"53","size_leaf_vector":"1"}},{"base_weights":[-1.4885667E-2,-1.3721836E1,3.788254E-1,5.5898935E-1,-1.7329977E1,9.573053E-1,-9.638653E0,-9.4241714E-1,-3.7521693E-1,3.9328918E0,-1.1806496E0,6.5783257E0,-1.6564E1,1.145216E1,8.6150956E-1,-9.49329E0,4.0488347E-1,8.187297E-1,-5.970782E-1,-1.9941807E1,3.5945027E0,-1.3630267E1,1.4301159E1,-9.850288E0,4.16681E0,1.2547191E1,-1.3726035E1,1.4075317E1,-1.2109123E0,-2.0945429E1,-1.9745903E-1,1.4705277E-2,2.5488243E-1,-1.2944235E-1,-1.0064133E0,-8.449459E-3,9.897832E-1,2.2692578E-1,-7.1969277E-1,-5.43776E-1,4.072921E-1,1.2617874E0,-5.301285E-3,5.8145143E-2,-9.2581415E-1,1.2382749E0,2.8877944E-1,-3.7236297E-1,7.1277E-2,-1.098109E0,-2.4402924E-1],"categories":[],"categories_nodes":[],"categories_segments":[],"categories_sizes":[],"default_left":[0,0,0,0,0,0,0,0,0,0,0,0,0,0,0,0,0,0,0,0,0,0,0,0,0,0,0,0,0,0,0,0,0,0,0,0,0,0,0,0,0,0,0,0,0,0,0,0,0,0,0],"id":20,"left_children":[1,3,5,-1,7,9,11,-1,-1,13,15,17,19,21,23,25,27,-1,-1,29,31,33,35,37,39,41,43,45,47,49,-1,-1,-1,-1,-1,-1,-1,-1,-1,-1,-1,-1,-1,-1,-1,-1,-1,-1,-1,-1,-1],"loss_changes":[2.1260532E3,1.1820796E3,2.2286777E3,0E0,7.745117E0,2.3139297E3,2.4674355E3,0E0,0E0,3.500505E3,2.7979966E3,1.4655188E3,1.0930542E3,3.3391606E3,3.9002666E3,3.344142E3,3.970909E3,0E0,0E0,1.2593945E2,1.338369E1,3.066267E2,3.1835967E3,1.7651155E3,5.1163174E3,9.65982E2,2.0898623E3,1.542751E3,2.6577512E3,8.881885E1,0E0,0E0,0E0,0E0,0E0,0E0,0E0,0E0,0E0,0E0,0E0,0E0,0E0,0E0,0E0,0E0,0E0,0E0,0E0,0E0,0E0],"parents":[2147483647,0,0,1,1,2,2,4,4,5,5,6,6,9,9,10,10,11,11,12,12,13,13,14,14,15,15,16,16,19,19,20,20,21,21,22,22,23,23,24,24,25,25,26,26,27,27,28,28,29,29],"right_children":[2,4,6,-1,8,10,12,-1,-1,14,16,18,20,22,24,26,28,-1,-1,30,32,34,36,38,40,42,44,46,48,50,-1,-1,-1,-1,-1,-1,-1,-1,-1,-1,-1,-1,-1,-1,-1,-1,-1,-1,-1,-1,-1],"split_conditions":[1.0226836E2,1.09013115E2,1.9621175E2,5.5898935E-1,1.8088562E2,1.4393256E2,1.2285844E2,-9.4241714E-1,-3.7521693E-1,1.25780685E2,1.5301974E2,1.7349237E2,1.9129846E2,1.07144035E2,1.3035733E2,1.1477413E2,1.12190895E2,8.187297E-1,-5.970782E-1,1.8644682E2,1.4077612E2,1.2441459E2,1.1916584E2,1.15498695E2,1.3856894E2,1.2298428E2,1.292647E2,1.6807716E2,1.3357933E2,1.8576749E2,-1.9745903E-1,1.4705277E-2,2.5488243E-1,-1.2944235E-1,-1.0064133E0,-8.449459E-3,9.897832E-1,2.2692578E-1,-7.1969277E-1,-5.43776E-1,4.072921E-1,1.2617874E0,-5.301285E-3,5.8145143E-2,-9.2581415E-1,1.2382749E0,2.8877944E-1,-3.7236297E-1,7.1277E-2,-1.098109E0,-2.4402924E-1],"split_indices":[8,0,8,0,2,6,4,0,0,5,6,0,3,3,0,2,4,0,0,4,0,0,8,6,5,9,0,6,5,3,0,0,0,0,0,0,0,0,0,0,0,0,0,0,0,0,0,0,0,0,0],"split_type":[0,0,0,0,0,0,0,0,0,0,0,0,0,0,0,0,0,0,0,0,0,0,0,0,0,0,0,0,0,0,0,0,0,0,0,0,0,0,0,0,0,0,0,0,0,0,0,0,0,0,0],"sum_hessian":[3.92E2,1E1,3.82E2,1E0,9E0,3.62E2,2E1,7E0,2E0,1.51E2,2.11E2,6E0,1.4E1,4.3E1,1.08E2,3.3E1,1.78E2,4E0,2E0,1.2E1,2E0,4E0,3.9E1,2.5E1,8.3E1,5E0,2.8E1,1.8E1,1.6E2,1.1E1,1E0,1E0,1E0,2E0,2E0,1.1E1,2.8E1,6E0,1.9E1,1.7E1,6.6E1,2E0,3E0,7E0,2.1E1,7E0,1.1E1,4.7E1,1.13E2,1E1,1E0],"tree_param":{"num_deleted":"0","num_feature":"10","num_nodes":"51","size_leaf_vector":"1"}},{"base_weights":[-1.6622782E-2,-2.9603097E0,1.8126503E0,-1.030069E1,-1.307072E-1,-7.905225E-1,7.8856626E0,4.7954854E-2,-1.4441747E1,1.7649878E1,-2.2846093E0,5.429351E0,-3.0549958E0,-1.2195484E1,9.541563E0,-1.0278848E1,1.8626608E1,-4.5293455E0,-2.2832012E1,2.0105228E1,-2.3397446E-1,4.006422E-1,-1.1175034E1,2.0179976E1,2.2643673E0,-7.301731E0,1.1731185E0,-8.0328315E-1,1.7888527E-1,1.051539E1,-7.531582E-1,4.571232E0,-9.23288E-1,-9.690819E-2,1.2126172E0,-1.7569666E1,1.288383E1,4.2635155E-1,-2.5491085E1,1.1155299E1,1.2852143E0,2.9939618E0,-8.928367E0,-1.56234665E1,1.3860886E1,-2.7050057E-1,2.4608547E1,1.5089412E1,-2.6783862E0,-9.870534E0,1.874698E1,5.9967127E0,-1.1486996E1,-7.414032E-1,1.1539062E1,4.741703E-1,-1.1364746E-2,1.0117264E-1,-1.1728383E0,1.1012944E0,2.4109147E-1,-1.3218307E0,-3.0634156E-1,7.53685E-2,6.391706E-1,3.4950373E-1,-2.4752705E-1,7.543803E-1,-6.5681684E-1,1.4746521E-1,-1.0225495E0,9.36351E-1,-1.8437957E-2,2.2556534E-1,1.3603101E0,9.7124714E-1,-1.4734916E-1,3.3588693E-1,-5.3662986E-1,-3.4808853E-1,-1.0833E0,-2.970623E-1,1.2436438E0,8.8418685E-2,1.1826607E0,5.2724E-1,-7.45001E-1,9.2214566E-1,3.8692543E-1],"categories":[],"categories_nodes":[],"categories_segments":[],"categories_sizes":[],"default_left":[0,0,0,0,0,0,0,0,0,0,0,0,0,0,0,0,0,0,0,0,0,0,0,0,0,0,0,0,0,0,0,0,0,0,0,0,0,0,0,0,0,0,0,0,0,0,0,0,0,0,0,0,0,0,0,0,0,0,0,0,0,0,0,0,0,0,0,0,0,0,0,0,0,0,0,0,0,0,0,0,0,0,0,0,0,0,0,0,0],"id":21,"left_children":[1,3,5,7,9,11,13,15,17,19,21,23,25,27,29,31,33,35,37,39,-1,41,43,45,47,49,51,-1,-1,53,-1,55,-1,-1,-1,57,59,-1,61,63,-1,65,67,69,71,-1,73,75,77,79,81,83,85,-1,87,-1,-1,-1,-1,-1,-1,-1,-1,-1,-1,-1,-1,-1,-1,-1,-1,-1,-1,-1,-1,-1,-1,-1,-1,-1,-1,-1,-1,-1,-1,-1,-1,-1,-1],"loss_changes":[2.1215952E3,3.134978E3,3.8478452E3,1.8005737E3,4.253064E3,2.4250767E3,2.543787E3,2.6856152E3,2.3916162E3,7.5199927E2,2.3679067E3,2.1018374E3,2.2709817E3,4.237486E2,1.787727E3,1.1785979E3,6.254646E2,3.6324658E3,1.5515391E3,2.6448438E2,0E0,1.8895999E3,2.7780789E3,1.0397493E3,2.5126655E3,4.400624E3,3.9771885E3,0E0,0E0,1.8833643E3,0E0,9.644032E1,0E0,0E0,0E0,1.0855833E3,4.0971814E2,0E0,1.1266992E2,7.497815E1,0E0,1.9711794E3,1.9161902E3,1.8535264E3,2.8387927E2,0E0,2.4270459E2,9.174158E2,2.2667712E3,1.8391587E3,1.0552009E3,3.4670825E3,1.5106287E3,0E0,1.53654E3,0E0,0E0,0E0,0E0,0E0,0E0,0E0,0E0,0E0,0E0,0E0,0E0,0E0,0E0,0E0,0E0,0E0,0E0,0E0,0E0,0E0,0E0,0E0,0E0,0E0,0E0,0E0,0E0,0E0,0E0,0E0,0E0,0E0,0E0],"parents":[2147483647,0,0,1,1,2,2,3,3,4,4,5,5,6,6,7,7,8,8,9,9,10,10,11,11,12,12,13,13,14,14,15,15,16,16,17,17,18,18,19,19,21,21,22,22,23,23,24,24,25,25,26,26,29,29,31,31,35,35,36,36,38,38,39,39,41,41,42,42,43,43,44,44,46,46,47,47,48,48,49,49,50,50,51,51,52,52,54,54],"right_children":[2,4,6,8,10,12,14,16,18,20,22,24,26,28,30,32,34,36,38,40,-1,42,44,46,48,50,52,-1,-1,54,-1,56,-1,-1,-1,58,60,-1,62,64,-1,66,68,70,72,-1,74,76,78,80,82,84,86,-1,88,-1,-1,-1,-1,-1,-1,-1,-1,-1,-1,-1,-1,-1,-1,-1,-1,-1,-1,-1,-1,-1,-1,-1,-1,-1,-1,-1,-1,-1,-1,-1,-1,-1,-1],"split_conditions":[1.4002791E2,1.2838087E2,1.7299818E2,1.3932858E2,1.0772967E2,1.1642579E2,1.0519345E2,1.553548E2,1.3239636E2,1.957964E2,1.8101695E2,1.5093402E2,1.4285637E2,1.7830843E2,1.9621175E2,1.0459906E2,1.12190895E2,1.3448341E2,1.0297629E2,1.5128946E2,-2.3397446E-1,1.8191539E2,1.9935167E2,1.1432215E2,1.16794975E2,1.9333134E2,1.712319E2,-8.0328315E-1,1.7888527E-1,1.0297629E2,-7.531582E-1,1.12451294E2,-9.23288E-1,-9.690819E-2,1.2126172E0,1.1984616E2,1.5293918E2,4.2635155E-1,1.9161922E2,1.15975E2,1.2852143E0,1.7183289E2,1.1469246E2,1.09013115E2,1.6426192E2,-2.7050057E-1,1.0772967E2,1.7915154E2,1.4581845E2,1.7678691E2,1.0565369E2,1.5552824E2,1.0459906E2,-7.414032E-1,1.3902718E2,4.741703E-1,-1.1364746E-2,1.0117264E-1,-1.1728383E0,1.1012944E0,2.4109147E-1,-1.3218307E0,-3.0634156E-1,7.53685E-2,6.391706E-1,3.4950373E-1,-2.4752705E-1,7.543803E-1,-6.5681684E-1,1.4746521E-1,-1.0225495E0,9.36351E-1,-1.8437957E-2,2.2556534E-1,1.3603101E0,9.7124714E-1,-1.4734916E-1,3.3588693E-1,-5.3662986E-1,-3.4808853E-1,-1.0833E0,-2.970623E-1,1.2436438E0,8.8418685E-2,1.1826607E0,5.2724E-1,-7.45001E-1,9.2214566E-1,3.8692543E-1],"split_indices":[2,9,7,0,7,7,6,7,7,0,4,2,0,0,0,9,0,8,1,9,0,9,4,6,5,9,9,0,0,9,0,0,0,0,0,2,6,0,0,5,0,5,1,5,0,0,5,6,1,5,1,9,4,0,8,0,0,0,0,0,0,0,0,0,0,0,0,0,0,0,0,0,0,0,0,0,0,0,0,0,0,0,0,0,0,0,0,0,0],"split_type":[0,0,0,0,0,0,0,0,0,0,0,0,0,0,0,0,0,0,0,0,0,0,0,0,0,0,0,0,0,0,0,0,0,0,0,0,0,0,0,0,0,0,0,0,0,0,0,0,0,0,0,0,0,0,0,0,0,0,0,0,0,0,0,0,0,0,0,0,0,0,0,0,0,0,0,0,0,0,0,0,0,0,0,0,0,0,0,0,0],"sum_hessian":[3.92E2,1.5E2,2.42E2,4.1E1,1.09E2,1.7E2,7.2E1,1.2E1,2.9E1,1.1E1,9.8E1,4.5E1,1.25E2,5E0,6.7E1,8E0,4E0,1.4E1,1.5E1,1E1,1E0,7.6E1,2.2E1,7E0,3.8E1,6.2E1,6.3E1,4E0,1E0,6.5E1,2E0,3E0,5E0,1E0,3E0,8E0,6E0,1E0,1.4E1,5E0,5E0,6E1,1.6E1,1.9E1,3E0,1E0,6E0,1E1,2.8E1,5.7E1,5E0,4.6E1,1.7E1,2E0,6.3E1,1E0,2E0,2E0,6E0,2E0,4E0,1.3E1,1E0,1E0,4E0,4E1,2E1,2E0,1.4E1,4E0,1.5E1,2E0,1E0,1E0,5E0,8E0,2E0,1.3E1,1.5E1,4.7E1,1E1,1E0,4E0,3.8E1,8E0,2E0,1.5E1,2.1E1,4.2E1],"tree_param":{"num_deleted":"0","num_feature":"10","num_nodes":"89","size_leaf_vector":"1"}}]},"name":"gbtree"},"learner_model_param":{"base_score":"1.4989526E2","boost_from_average":"1","num_class":"0","num_feature":"10","num_target":"1"},"objective":{"name":"reg:squarederror","reg_loss_param":{"scale_pos_weight":"1"}}},"version":[3,0,0]}